tree
version=v4
num_class=1
num_tree_per_iteration=1
label_index=0
max_feature_idx=178
objective=regression
feature_names=is_dna num_seqs min-seq_length max-seq_length mean-seq_length std-seq_length p5-seq_length p10-seq_length p25-seq_length p50-seq_length p75-seq_length p90-seq_length p95-seq_length lower_bound_gap_percentage min-js_divergence max-js_divergence mean-js_divergence std-js_divergence p5-js_divergence p10-js_divergence p25-js_divergence p50-js_divergence p75-js_divergence p90-js_divergence p95-js_divergence min-frst_entropy max-frst_entropy mean-frst_entropy std-frst_entropy p5-frst_entropy p10-frst_entropy p25-frst_entropy p50-frst_entropy p75-frst_entropy p90-frst_entropy p95-frst_entropy min-frst_chi-square max-frst_chi-square mean-frst_chi-square std-frst_chi-square p5-frst_chi-square p10-frst_chi-square p25-frst_chi-square p50-frst_chi-square p75-frst_chi-square p90-frst_chi-square p95-frst_chi-square min-frst_mean max-frst_mean mean-frst_mean std-frst_mean p5-frst_mean p10-frst_mean p25-frst_mean p50-frst_mean p75-frst_mean p90-frst_mean p95-frst_mean min-frst_serial-correlation max-frst_serial-correlation mean-frst_serial-correlation std-frst_serial-correlation p5-frst_serial-correlation p10-frst_serial-correlation p25-frst_serial-correlation p50-frst_serial-correlation p75-frst_serial-correlation p90-frst_serial-correlation p95-frst_serial-correlation min-tc_base_min max-tc_base_min mean-tc_base_min std-tc_base_min p5-tc_base_min p10-tc_base_min p25-tc_base_min p50-tc_base_min p75-tc_base_min p90-tc_base_min p95-tc_base_min min-tc_base_mean max-tc_base_mean mean-tc_base_mean std-tc_base_mean p5-tc_base_mean p10-tc_base_mean p25-tc_base_mean p50-tc_base_mean p75-tc_base_mean p90-tc_base_mean p95-tc_base_mean min-tc_base_max max-tc_base_max mean-tc_base_max std-tc_base_max p5-tc_base_max p10-tc_base_max p25-tc_base_max p50-tc_base_max p75-tc_base_max p90-tc_base_max p95-tc_base_max min-tc_dist_scaled_min max-tc_dist_scaled_min mean-tc_dist_scaled_min std-tc_dist_scaled_min p5-tc_dist_scaled_min p10-tc_dist_scaled_min p25-tc_dist_scaled_min p50-tc_dist_scaled_min p75-tc_dist_scaled_min p90-tc_dist_scaled_min p95-tc_dist_scaled_min min-tc_dist_scaled_mean max-tc_dist_scaled_mean mean-tc_dist_scaled_mean std-tc_dist_scaled_mean p5-tc_dist_scaled_mean p10-tc_dist_scaled_mean p25-tc_dist_scaled_mean p50-tc_dist_scaled_mean p75-tc_dist_scaled_mean p90-tc_dist_scaled_mean p95-tc_dist_scaled_mean min-tc_dist_scaled_max max-tc_dist_scaled_max mean-tc_dist_scaled_max std-tc_dist_scaled_max p5-tc_dist_scaled_max p10-tc_dist_scaled_max p25-tc_dist_scaled_max p50-tc_dist_scaled_max p75-tc_dist_scaled_max p90-tc_dist_scaled_max p95-tc_dist_scaled_max min-psa_score_ratio max-psa_score_ratio mean-psa_score_ratio std-psa_score_ratio p5-psa_score_ratio p10-psa_score_ratio p25-psa_score_ratio p50-psa_score_ratio p75-psa_score_ratio p90-psa_score_ratio p95-psa_score_ratio min-psa_gap_ratio max-psa_gap_ratio mean-psa_gap_ratio std-psa_gap_ratio p5-psa_gap_ratio p10-psa_gap_ratio p25-psa_gap_ratio p50-psa_gap_ratio p75-psa_gap_ratio p90-psa_gap_ratio p95-psa_gap_ratio min-psa_stretch_ratio max-psa_stretch_ratio mean-psa_stretch_ratio std-psa_stretch_ratio p5-psa_stretch_ratio p10-psa_stretch_ratio p25-psa_stretch_ratio p50-psa_stretch_ratio p75-psa_stretch_ratio p90-psa_stretch_ratio p95-psa_stretch_ratio min-psa_gap_length max-psa_gap_length mean-psa_gap_length std-psa_gap_length p5-psa_gap_length p10-psa_gap_length p25-psa_gap_length p50-psa_gap_length p75-psa_gap_length p90-psa_gap_length p95-psa_gap_length
feature_infos=[0:1] [3:233] [17:7743] [23:7954] [22.918918918918919:7840.7234042553191] [0:2472.283759118277] [21:7766] [21:7846.1999999999998] [23:7853] [23:7853] [23:7857] [23:7886.6000000000004] [23:7896] [0:0.89691444600280501] [0:0.35718107223510742] [0.0011278028832748532:0.70773833990097046] [8.9047251094598323e-05:0.44036439061164856] [0.00025664153508841991:0.14371860027313232] [0:0.35734062641859055] [0:0.35750018060207367] [0:0.39395252615213394] [0:0.45738412439823151] [0:0.49157678335905075] [0.00061584619106724858:0.53519594669342041] [0.00061584619106724858:0.65896793603897086] [0:4.2314299999999996] [0.93211200000000005:4.2816210000000003] [0.50225629729729737:4.232781090909091] [4.1062311449201343e-05:0.62092599455578679] [0:4.2316059999999993] [0.258019:4.2317819999999999] [0.42622900000000002:4.2320414999999993] [0.55862900000000004:4.2324679999999999] [0.666578:4.2490550000000002] [0.666578:4.2587198000000006] [0.75537500000000002:4.2619015999999998] [478.80952400000001:574151.43285700004] [860.28205100000002:679384.06300299999] [703.99830677777777:586931.60186618334] [9.0916922868693781:158227.4057711245] [516.61904760000004:577293.21323174995] [554.42857120000008:582283.38537899998] [625.09523799999999:586443.50779524993] [672:588176.22835050011] [740:588900.71204000001] [800.18918900000006:594145.78580479999] [827.59989969999947:618960.25821180001] [65:80.011736999999997] [65.695651999999995:80.813433000000003] [65.251160378378387:80.30923925945946] [0.0025428258267586514:1.879729833635966] [65:80.139877600000005] [65.086956999999998:80.170049599999999] [65.173912999999999:80.220312000000007] [65.260869999999997:80.293777000000006] [65.347825999999998:80.368711500000003] [65.347825999999998:80.589012699999998] [65.434782999999996:80.644836100000006] [-100000:0.342165] [-0.263044:0.44790000000000002] [-9459.5416885945942:0.4003319027027028] [0.00012023295309608142:29265.389404667647] [-100000:0.36410419999999999] [-0.35473070000000001:0.37548120000000001] [-0.31829075000000001:0.39295999999999998] [-0.28806700000000002:0.40149100000000004] [-0.27555550000000001:0.41360000000000002] [-0.26804860000000003:0.42198239999999998] [-0.26554630000000001:0.42347459999999998] [0:1] [0:1] [0:1] [0:0.43788359439251456] [0:1] [0:1] [0:1] [0:1] [0:1] [0:1] [0:1] [0:1] [0:1] [0:1] [0:0.43836798367962543] [0:1] [0:1] [0:1] [0:1] [0:1] [0:1] [0:1] [0:1] [0:1] [0:1] [0:0.43989804759696549] [0:1] [0:1] [0:1] [0:1] [0:1] [0:1] [0:1] [0:9.0053899931994668] [0:15.423281146227417] [0:12.195722842411705] [0:3.8769167360647021] [0:9.04694680033111] [0:9.5176962663680253] [0:11.772592180724164] [0:12.946598795813522] [0:13.596572901616026] [0:13.997017528110236] [0:14.212595201237956] [0:10.007702041270235] [0:19.434556872371324] [0:13.766824744067067] [0:4.8413093754840979] [0:12.068213715268659] [0:12.440480583983001] [0:13.259353231178128] [0:13.955641334443435] [0:14.438948694344649] [0:16.937318212341406] [0:17.536447529030685] [0:10.540716418160835] [0:29.917978226446966] [0:14.918194956583454] [0:6.9062305964393182] [0:13.801306368614] [0:14.024322121941223] [0:14.344336586424264] [0:15.769999110385978] [0:17.235118711205565] [0:24.552946145168171] [0:25.109437582714754] [-76.557142857142864:5.558139534883721] [-0.5957446808510638:6.0697674418604652] [-14.761600032123297:5.7674418604651168] [0.0021531388843512764:19.9424267785231] [-35.924731182795696:5.5697674418604652] [-35.876344086021504:5.5813953488372094] [-35.783602150537632:5.6162790697674421] [-6.737903225806452:5.6744186046511631] [-0.76083530338849492:5.8720930232558146] [-0.6617809298660362:5.9906976744186045] [-0.62876280535855:6.0302325581395353] [0:0.22268907563025211] [0:0.49189846070753446] [0:0.31347535839797375] [0:0.23049449784997583] [0:0.22819794584500469] [0:0.23370681605975724] [0:0.26790920820947128] [0:0.44215431318690879] [0:0.4763659466327827] [0:0.4764989837398374] [0:0.47807768268597761] [0.60219780219780217:1] [0.85493372606774665:1] [0.83866856165928627:1] [0:0.11777950883797174] [0.65846153846153843:1] [0.6635802469135802:1] [0.72390572390572394:1] [0.80451127819548873:1] [0.84760188027258154:1] [0.85326594979186421:1] [0.85409983792980548:1] [0:9.5] [0:5206] [0:771.02725492133243] [0:1220.7427617482674] [0:9.6999999999999993] [0:12.715789473684211] [0:34.791666666666671] [0:205.90000000000001] [0:1196] [0:3195] [0:3196]
tree_sizes=4445 4594 4611 4629 4639 4625 4640 4638 4635 4650 4683 4687 4681 4698 4687 4692 4719 4710 4692 4718 4726 4739 4759 4736 4764 4750 4731 4738 4763 4743 4765 4731 4785 4796 4783 4758 4788 4817 4784 4741 4805 4793 4812 4812 4829 4796 4823 4833 4819 4846 4845 4836 4841 4810 4810 4834 4871 4813 4791 4826 4868 4855 4856 4866 4839 4829 4798 4834 4839 4844 4852 4900 4856 4877 4861 4847 4841 4806 4854 4845 4892 4862 4835 4851 4856 4868 4868 4851 4831 4851 4881 4894 4875 4844 4865 4855 4878 4892 4842 4850

Tree=0
num_leaves=51
num_cat=0
split_feature=76 98 93 76 148 93 165 89 89 76 118 36 150 105 148 76 148 150 35 150 89 148 87 161 93 161 133 35 89 150 123 161 98 150 148 148 103 70 76 76 164 93 35 95 148 89 148 3 150 58
split_gain=97.3679 16.6212 10.9105 2.23114 1.63049 1.37386 1.24289 1.56605 1.00784 0.712545 0.979348 0.537599 1.1057 0.448994 0.437268 0.43161 0.3321 0.310805 0.344995 0.282009 0.281897 0.276542 0.26269 0.244096 0.222719 0.202559 0.191187 0.149426 0.143696 0.128676 0.118132 0.109783 0.104912 0.127632 0.0998527 0.0984748 0.0828091 0.0816213 0.0780979 0.0754362 0.0678635 0.0677417 0.0625665 0.0718817 0.0616653 0.0586335 0.0585933 0.0572272 0.0843455 0.0552701
threshold=0.44588505453747468 0.12589517788147928 0.81794422112548493 0.19195895951215103 0.039553365111394977 0.69289701240812074 0.93265389496852025 0.65619311975547678 0.44991448621727942 0.05904139433551199 2.486482575978735 11075.317786500002 0.058926939284230519 0.084981274612806065 0.15578322824513793 0.92633108112859375 0.15313419050853436 0.049588001563314228 2.0653590750000004 0.022983525871117311 0.18511655661142926 0.14713841171664652 0.34502055514156255 0.97186018190728818 0.31822740947578659 0.89152059870869182 4.0231747293207656 4.1152609000000009 0.27375154593380618 0.018569375584425667 4.6354086805705146 0.90358260078474617 0.35928947588846144 0.042563019305827676 0.056508192943349717 0.11492168474584932 1.9129773241743571 0.9821072851451339 0.72919507526089322 0.68676647388668954 0.97926138124857942 0.38701728969860294 2.0069144500000005 0.035447407776669999 0.096343196729078748 0.80468616096876 0.0090923038474949973 523.50000000000011 0.039230456328547089 -0.097752499999999978
decision_type=2 2 2 2 2 2 2 2 2 2 2 2 2 2 2 2 2 2 2 2 2 2 2 2 2 2 2 2 2 2 2 2 2 2 2 2 2 2 2 2 2 2 2 2 2 2 2 2 2 2
left_child=1 8 5 11 23 17 21 16 9 13 36 12 24 -1 22 29 32 25 -19 34 -15 -5 41 -4 37 42 31 39 -13 -6 40 -16 33 -8 -7 45 -11 -3 -36 -27 -17 -9 -2 -44 -31 -29 -25 -21 -49 -45
right_child=2 3 4 6 15 19 7 14 -10 10 -12 28 -14 20 26 30 -18 18 -20 47 -22 -23 -24 46 -26 27 -28 35 -30 44 -32 -33 -34 -35 38 -37 -38 -39 -40 -41 -42 -43 43 49 -46 -47 -48 48 -50 -51
leaf_value=0.20476851519360584 0.15948748409536842 0.19046060450266472 0.14609110399304107 0.15707464966538404 0.15078376509901897 0.15158604666253339 0.18060136906540236 0.17552764976961358 0.19384715912418279 0.20719781041428853 0.1903718900708895 0.18109922017909719 0.20321444753337556 0.22229004983142425 0.18825774336686596 0.15082031957290409 0.19501566478645216 0.16003212073728848 0.17532361923483089 0.15629246054999671 0.20994223652261215 0.16967953350113046 0.16703208707242506 0.14246680449887064 0.17896676739192144 0.15873374032650778 0.1714439096330147 0.16530798188782925 0.17046465692694629 0.15251101635404846 0.15001688429215276 0.17847796770755919 0.17761897810362962 0.19015553147988043 0.15734415421806211 0.1662470262294849 0.21550489018644303 0.1847456875716762 0.15377209049305848 0.15285526056850529 0.14620730298577236 0.17114111450346045 0.16940322399450325 0.16234629206317347 0.15744377922396682 0.15943356607149542 0.14401573720646973 0.1585164069602146 0.16521291194504154 0.16832014382701241
leaf_weight=31 20 38 499 46 380 135 29 73 46 20 35 27 37 64 22 35 30 25 36 49 26 28 119 410 56 114 20 21 24 55 138 24 27 27 89 42 30 73 196 27 359 68 34 59 47 89 604 62 27 21
leaf_count=31 20 38 499 46 380 135 29 73 46 20 35 27 37 64 22 35 30 25 36 49 26 28 119 410 56 114 20 21 24 55 138 24 27 27 89 42 30 73 196 27 359 68 34 59 47 89 604 62 27 21
internal_value=0.157695 0.184945 0.149915 0.177633 0.14636 0.158504 0.173833 0.175854 0.20723 0.210218 0.203201 0.185278 0.187574 0.215148 0.172337 0.149463 0.185998 0.16238 0.169057 0.155115 0.218723 0.161844 0.170492 0.14428 0.184108 0.161426 0.179606 0.159953 0.176095 0.15163 0.147499 0.183155 0.182739 0.185208 0.153826 0.162128 0.212182 0.186702 0.154888 0.157608 0.146617 0.173412 0.164646 0.165551 0.154784 0.160555 0.143389 0.159037 0.160548 0.163914
internal_weight=4593 1020 3573 768 2527 1046 513 439 252 206 85 255 204 121 326 1014 113 488 61 558 90 74 260 1513 167 427 66 293 51 482 532 46 83 56 420 152 50 111 285 141 394 141 134 114 102 110 1014 138 89 80
internal_count=4593 1020 3573 768 2527 1046 513 439 252 206 85 255 204 121 326 1014 113 488 61 558 90 74 260 1513 167 427 66 293 51 482 532 46 83 56 420 152 50 111 285 141 394 141 134 114 102 110 1014 138 89 80
is_linear=0
shrinkage=1


Tree=1
num_leaves=51
num_cat=0
split_feature=87 87 75 172 172 75 87 72 75 89 1 87 172 72 172 47 14 87 61 155 146 89 173 72 172 89 32 5 1 140 140 14 87 72 87 172 43 140 146 173 109 155 75 75 140 84 75 5 87 155
split_gain=78.122 14.8936 7.84145 1.93083 1.62512 1.35748 1.17687 1.15474 0.875507 0.77896 0.519558 0.484904 0.424727 0.393443 0.386813 0.374526 0.350492 0.345914 0.269455 0.268451 0.262723 0.257182 0.226667 0.210366 0.180767 0.172151 0.170504 0.167657 0.151902 0.147556 0.138416 0.128549 0.120474 0.11681 0.116131 0.104415 0.101137 0.100759 0.0973256 0.0954362 0.0930814 0.0792874 0.0758518 0.0736174 0.0718781 0.0707527 0.0677812 0.0656187 0.101489 0.0631843
threshold=0.51786738731311766 0.12686229463324442 0.7681803960519219 2.1057445701568862 1.877557687321753 0.18653643270401313 0.72460109876667333 0.16126367102166919 0.90044071677813331 0.44991448621727942 4.5000000000000009 0.18736673684798646 2.8774305555555562 0.077945806417701033 1.6683716806861293 71.655270500000015 0.013566575944423677 0.1007068156587179 0.03853988732086798 0.12382018692080929 0.13159725600856284 0.68309830254759574 1.3627705627705631 0.079692128186534553 1.6773809523809529 0.65619311975547678 1.9899732500000002 94.615531667577798 35.500000000000007 -0.24674582472679765 2.160301250036087 0.072144921869039549 0.33498791223800728 0.29307198627414927 0.26267915141939291 1.8604971146435636 2654.1340440000008 -0.38265539690015932 0.0023659364854274737 1.8572992700729929 0.91940832907888748 0.051335166768345021 0.97530396177573386 0.28142700345410226 2.9873012555718588 0.93730025765114411 0.50991042968911715 45.059400160435992 0.81539449928607677 0.11744691375369774
decision_type=2 2 2 2 2 2 2 2 2 2 2 2 2 2 2 2 2 2 2 2 2 2 2 2 2 2 2 2 2 2 2 2 2 2 2 2 2 2 2 2 2 2 2 2 2 2 2 2 2 2
left_child=1 4 6 5 17 11 12 10 24 13 20 16 19 29 30 32 -3 26 -13 -2 36 -17 42 -12 41 31 -1 33 -21 -5 49 -11 -7 -20 -35 -18 -6 38 -27 -30 -9 -4 -10 -23 -43 -24 -14 -16 -49 -8
right_child=2 3 8 9 7 15 14 40 22 25 23 18 46 -15 47 21 35 -19 27 28 -22 43 45 -25 -26 37 -28 -29 39 -31 -32 -33 -34 34 -36 -37 -38 -39 -40 -41 -42 44 -44 -45 -46 -47 -48 48 -50 -51
leaf_value=0.043233284141336176 -0.0013296042292295918 0.011451771353371443 -0.010537862722334024 0.031343329630114818 0.046679572343826296 0.0047440232859263503 -0.0070882378345095802 0.038952784878867018 -0.011851660945020629 0.030295609716664663 0.0630096991856893 0.0054147978610327024 0.016661014297001422 0.03983451176334072 -0.0030590053364707558 0.01877618429179375 0.023083715181706883 0.022667017270778789 0.017805799571414517 0.0073895636712470805 0.055212362923405395 0.010083440453228024 -0.008989124938257544 0.052623165647188823 -0.0045699255880443839 0.015890492791659199 0.032056904068359961 0.023049673996865749 -2.900564884459907e-06 0.019475361201912164 -2.7315611285822733e-05 0.02008084885642997 -0.0042228607589314725 0.016514330478955289 0.010220803271290171 0.031142306849360469 0.037771508584801966 0.014132640487514437 0.02563771325207892 0.0042541401977301578 0.029921891927719119 -0.0086072247716965887 -0.013441118366078825 0.0053825442038942135 -0.0056085243594841423 -0.011713810929027546 0.0087183198806914421 0.0042528803126075333 -0.00083182569115561929 -0.0045431597888292907
leaf_weight=21 146 25 148 22 25 31 174 21 597 22 39 29 21 37 51 26 82 29 73 88 22 72 271 39 143 20 39 27 91 20 49 28 29 49 73 20 26 48 21 125 25 316 604 62 107 147 22 62 107 222
leaf_count=21 146 25 148 22 25 31 174 21 597 22 39 29 21 37 51 26 82 29 73 88 22 72 271 39 143 20 39 27 91 20 49 28 29 49 73 20 26 48 21 125 25 316 604 62 107 147 22 62 107 222
internal_value=3.14688e-11 0.0232125 -0.00732748 0.01633 0.0428494 0.013393 -0.000600399 0.047916 -0.0106665 0.0243866 0.0521417 0.0170278 0.00310212 0.0323157 -0.00334528 0.00714776 0.022063 0.0316344 0.0144801 0.00219481 0.0460784 0.00967441 -0.011953 0.0578164 -0.00774944 0.0198801 0.0359686 0.0156643 0.00388745 0.0256919 -0.00504106 0.0245753 0.000410029 0.0146418 0.0127485 0.0246638 0.0421382 0.0172423 0.020883 0.00246066 0.0340447 -0.00854571 -0.012651 0.0079084 -0.00784869 -0.00994733 0.0125973 8.48362e-05 0.00103357 -0.00566145
internal_weight=4593 1102 3491 816 286 598 1158 197 2333 218 151 378 493 79 665 220 127 89 251 450 73 160 1619 78 714 139 60 222 304 42 445 50 60 195 122 102 51 89 41 216 46 571 1201 134 423 418 43 220 169 396
internal_count=4593 1102 3491 816 286 598 1158 197 2333 218 151 378 493 79 665 220 127 89 251 450 73 160 1619 78 714 139 60 222 304 42 445 50 60 195 122 102 51 89 41 216 46 571 1201 134 423 418 43 220 169 396
is_linear=0
shrinkage=0.1


Tree=2
num_leaves=51
num_cat=0
split_feature=71 71 71 48 77 71 142 71 148 139 158 77 142 48 148 91 78 148 148 26 77 148 148 120 160 91 71 71 39 50 34 160 48 130 135 160 160 71 50 132 78 59 125 71 148 142 170 71 130 39
split_gain=64.4107 10.5882 8.28411 1.92751 1.85222 1.14115 1.10392 1.04953 0.398556 0.396397 0.482644 0.38627 0.33453 0.324071 0.290626 0.236629 0.241732 0.234199 0.219035 0.216891 0.184513 0.17683 0.172771 0.161177 0.160882 0.15015 0.143217 0.10891 0.0918681 0.0999101 0.0903936 0.0901847 0.0861264 0.083252 0.0651478 0.0646213 0.0621423 0.0619245 0.0617726 0.0598486 0.0576308 0.0565744 0.056299 0.0542643 0.0535858 0.0511574 0.0609547 0.0469978 0.0451884 0.0424213
threshold=0.44780775214768775 0.14178259055906514 0.78865327392407558 72.909384500000002 0.36233477062274694 0.61733308054737901 1.234177810525656 0.9229876042867865 0.18010703883350215 -0.28258540529613901 0.90358588504214499 0.56825506020395811 1.4407193052131084 72.758122500000013 0.15313419050853436 0.19794038227352151 0.43739544211059755 0.045091834897204412 0.11655056651546984 4.1185575000000005 0.63229718666138923 0.071784319190466725 0.022608202435348224 2.6704400744611383 0.032645509852081707 0.33524012772580675 0.34792331409180149 0.085844576483090809 612.08300825259801 0.41836297521077931 1.9944715500000003 0.022097966538247433 76.674386000000013 1.0240463060044875 2.380442975277802 0.015839196528846852 0.038085613313577675 0.52800326218157523 0.52535702352726588 7.2158178352283633 0.88708191917350654 0.18270700000000004 5.5828656203681097 0.98174838676465659 0.17150440614165977 0.10967950560505894 4.7019580251990538 0.21929420452943024 1.4097157355608096 486.89715282974697
decision_type=2 2 2 2 2 2 2 2 2 2 2 2 2 2 2 2 2 2 2 2 2 2 2 2 2 2 2 2 2 2 2 2 2 2 2 2 2 2 2 2 2 2 2 2 2 2 2 2 2 2
left_child=1 6 5 12 15 13 8 17 9 19 -11 14 30 39 26 16 49 -4 37 -1 -20 -7 -9 -12 -16 31 36 -21 41 -30 -3 -23 -18 -22 35 -19 -6 48 -27 -2 -33 -13 -26 -24 -42 46 -28 -34 -15 -5
right_child=2 3 7 4 11 21 -8 22 -10 10 23 28 -14 18 24 -17 32 34 20 27 33 25 43 -25 42 38 45 -29 29 -31 -32 40 47 -35 -36 -37 -38 -39 -40 -41 44 -43 -44 -45 -46 -47 -48 -49 -50 -51
leaf_value=0.039709430075053016 -0.0052598256121079131 0.0057000100792896366 -0.0086178941944432888 0.032551631899107071 0.019452973903062637 -0.0036135342433582032 0.023411614730440337 -0.011777535841231991 0.052818008772162507 0.048563662739027118 0.036601741966747106 0.010955195230627924 -0.0013465923113510647 0.0093094208870752489 0.018131742467852058 0.020698013935142603 0.021868027617725043 -0.0076268667589638618 0.017156623288989068 0.054353680248771401 0.011982131895098475 -0.0040516397489837423 -0.00917955964206142 0.024605583244313799 0.023528995811939242 0.0047537736630749328 0.019456001818180087 0.045749703722615401 0.0090298547854890006 0.017790138771136603 0.013066728785634042 0.003760789462455338 0.030671650679274038 0.0058331747206945075 -0.0024807094608673432 -0.0051329681076286333 0.015201018830495223 0.0029686207206079574 -0.0010263124387711287 0.0018023146048653871 -0.0016630134078392683 0.0050903486625837359 0.031032258570194246 -0.011443532880087544 0.0022931783736228595 0.010838237338784067 0.011742157950287775 0.02572148025912397 0.0048630845890875211 0.038835185088894587
leaf_weight=33 30 31 383 21 89 243 29 903 43 21 21 38 47 32 37 39 26 143 25 28 31 85 519 24 20 71 20 31 23 30 36 31 44 76 66 380 56 138 25 20 168 29 20 133 43 55 21 34 80 22
leaf_count=33 30 31 383 21 89 243 29 903 43 21 21 38 47 32 37 39 26 143 25 28 31 85 519 24 20 71 20 31 23 30 36 31 44 76 66 380 56 138 25 20 168 29 20 133 43 55 21 34 80 22
internal_value=-1.36184e-11 0.0229164 -0.00611948 0.0170778 0.0192622 0.00113273 0.0416508 -0.00927062 0.0442823 0.0419593 0.0360456 0.0157118 0.00512116 0.00513554 0.0175361 0.0276228 0.0294599 -0.00669295 0.00612644 0.0462017 0.00942184 -0.00146368 -0.0108819 0.0302038 0.0228844 -0.000228663 0.0158273 0.0498329 0.0108776 0.0139885 0.00965825 -0.00124949 0.0268524 0.00761465 -0.00544125 -0.00581486 0.0178108 0.00438647 0.00324854 -0.00243497 -0.000265269 0.00841668 0.0272806 -0.00964138 -0.000856775 0.0128313 0.015505 0.0285139 0.00613347 0.0357665
internal_weight=4593 968 3625 738 624 1098 230 2527 201 158 66 438 114 432 318 186 147 972 382 92 132 666 1555 45 77 423 241 59 120 53 67 327 104 107 589 523 145 250 96 50 242 67 40 652 211 96 41 78 112 43
internal_count=4593 968 3625 738 624 1098 230 2527 201 158 66 438 114 432 318 186 147 972 382 92 132 666 1555 45 77 423 241 59 120 53 67 327 104 107 589 523 145 250 96 50 242 67 40 652 211 96 41 78 112 43
is_linear=0
shrinkage=0.1


Tree=3
num_leaves=51
num_cat=0
split_feature=71 71 71 52 82 71 153 14 67 82 90 71 13 54 160 71 153 13 93 63 153 153 13 164 93 13 39 169 71 126 28 13 63 26 15 90 160 160 30 26 90 97 28 160 90 164 28 71 34 121
split_gain=52.1726 8.57646 6.71444 1.69725 1.55749 0.95266 0.899736 0.829492 0.369133 0.328622 0.309716 0.277459 0.26174 0.226001 0.219909 0.198402 0.192896 0.175719 0.182143 0.165998 0.16435 0.153485 0.136622 0.125201 0.116089 0.115688 0.113606 0.112375 0.107225 0.0916167 0.0908251 0.0897134 0.0839733 0.0801968 0.0759057 0.0717404 0.0640133 0.0633694 0.0626287 0.0617327 0.058636 0.0583564 0.0569687 0.0566954 0.0557487 0.0523401 0.049873 0.0479465 0.0729454 0.0445288
threshold=0.44780775214768775 0.14178259055906514 0.7910638772292965 71.661965650000013 0.29587233126134155 0.61733308054737901 0.029229901979626313 0.012118144892156126 0.022915200000000014 0.10096785767236319 0.7841734985245884 0.21929420452943024 0.10412609629251314 75.642414000000016 0.023072811853236338 0.2823235562772976 0.083418716102138094 0.38639752749581885 0.38701728969860294 -0.032053599999999995 0.056220167975828884 0.14380951991583402 0.10514033199079593 0.95902022454173341 0.10061893525470354 0.32852525765266888 467.63076483193146 26.083333333333339 0.98174838676465659 0.96864631420854763 0.094853178207416983 0.31669892591373389 -0.12915494999999996 4.1821705000000007 0.19693039357662204 0.28098378574623956 0.040102723068319475 0.024543223347923245 3.9114569500000003 4.1304165000000008 0.48318175339416819 0.91770471114279373 0.045937464254387154 0.024797309761873717 0.98732683003225363 0.97525016875348192 0.045937464254387154 0.70853944462070761 4.0886044500000009 3.7019233542394701
decision_type=2 2 2 2 2 2 2 2 2 2 2 2 2 2 2 2 2 2 2 2 2 2 2 2 2 2 2 2 2 2 2 2 2 2 2 2 2 2 2 2 2 2 2 2 2 2 2 2 2 2
left_child=1 7 5 15 11 13 28 9 -9 -1 21 22 24 37 -14 -3 47 18 38 31 41 30 -5 34 -10 -25 -16 -21 43 -22 -6 36 -20 -19 -18 -28 -15 42 -12 -13 -24 -8 -2 -4 -39 -31 -34 48 -7 -47
right_child=2 3 6 4 10 16 20 8 12 -11 17 39 14 19 26 -17 23 33 32 27 29 -23 40 25 -26 -27 35 -29 -30 45 -32 -33 46 -35 -36 -37 -38 44 -40 -41 -42 -43 -44 -45 -46 49 -48 -49 -50 -51
leaf_value=0.035015991702675824 -0.0045419302872485587 0.0073342771971296964 -0.0093676064736568001 0.020677103461431607 0.013243229579376549 -0.0044388623120316323 -0.0063526136222163245 0.029329406040720641 0.04048999072267459 0.018551310593331302 0.01016154089011252 0.025172901691661944 0.035582129880785941 0.0033993004656957442 0.042150233834981926 -0.0013442351569443248 0.0082649911231971514 0.01409302204130934 0.0032526245949460043 0.0073950603790581236 -0.0088097923336193911 0.025487293243408204 0.034281250053928014 -0.0015651705856302156 0.030356177873909474 0.003234091846663012 0.052132088989019401 0.017451792666688563 -0.010939262830537977 -0.0021063833284036566 0.021568725928664208 0.0097589994025592888 0.014291595472022892 0.022515806145966055 0.00037069377888526234 0.044796879738569266 0.0076220075332341687 0.0040087036407341998 0.015335530849794547 0.019836607328192757 0.028099914888540908 -0.008451737718340676 0.0024996491998899731 -0.0048730491596306194 -0.0018659106671111659 -0.0053254922984599358 0.0088167263300750736 -0.0040243743074536873 0.00014300937466768109 -0.0021146589535839251
leaf_weight=22 27 68 871 21 38 57 324 25 26 27 32 27 20 152 30 43 29 26 24 25 47 25 21 221 20 65 40 20 611 96 20 37 20 20 21 20 47 84 87 110 57 224 20 29 20 255 99 202 89 52
leaf_count=22 27 68 871 21 38 57 324 25 26 27 32 27 20 152 30 43 29 26 24 25 47 25 21 221 20 65 40 20 611 96 20 37 20 20 21 20 47 84 87 110 57 224 20 29 20 255 99 202 89 52
internal_value=1.96735e-11 0.0206248 -0.00550753 0.01537 0.0173878 0.000945581 -0.00837787 0.0374857 0.0406103 0.0259436 0.0135157 0.023803 0.0424182 0.00462198 0.045067 0.00397233 -0.00137636 0.0120547 0.0110539 0.00629866 -0.00604777 0.0189373 0.0278366 0.000332686 0.036084 -0.000474429 0.0471748 0.0118647 -0.00991687 -0.00463164 0.0161141 0.00523733 0.00864861 0.0177551 0.00494939 0.049687 0.00439662 0.00150181 0.0139442 0.0208883 0.0297641 -0.00721065 -0.00154551 -0.00922278 0.00287897 -0.00414436 0.00973687 -0.00302647 -0.0016458 -0.00478164
internal_weight=4593 968 3625 738 627 1116 2509 230 181 49 391 236 156 432 110 111 684 308 262 281 998 83 99 336 46 286 90 45 1511 450 58 236 143 46 50 60 199 151 119 137 78 548 47 900 104 403 119 348 146 307
internal_count=4593 968 3625 738 627 1116 2509 230 181 49 391 236 156 432 110 111 684 308 262 281 998 83 99 336 46 286 90 45 1511 450 58 236 143 46 50 60 199 151 119 137 78 548 47 900 104 403 119 348 146 307
is_linear=0
shrinkage=0.1


Tree=4
num_leaves=51
num_cat=0
split_feature=74 143 153 143 153 101 101 171 143 74 159 153 153 172 159 161 136 74 109 158 123 10 143 165 143 109 35 74 74 160 127 148 159 26 83 10 159 172 109 57 172 148 101 136 148 101 10 172 101 153
split_gain=36.1701 9.07156 3.63802 3.06555 1.89651 1.24072 0.893677 0.82747 0.775169 0.639173 0.569178 0.516416 0.369222 0.353123 0.265053 0.215501 0.198281 0.275252 0.184759 0.1698 0.156136 0.152626 0.144677 0.141606 0.141515 0.135852 0.124672 0.115694 0.109383 0.0985618 0.0968847 0.0948096 0.0939073 0.0859074 0.0854479 0.0830926 0.0818674 0.0779111 0.0722797 0.106333 0.0714189 0.0615189 0.0580844 0.0599791 0.057855 0.0575468 0.0574543 0.0572117 0.0535012 0.048424
threshold=0.26149036883628496 0.22308480649291648 0.056220167975828884 1.4062093214312772 0.16938816315649161 0.31326445305916067 0.9064562438510434 21.320851765143157 -0.089913867979154585 0.016547672504116154 0.98557458733745384 0.097051152006955535 0.17758561821771598 2.9696691176470593 0.97195793673905506 0.91612997689737685 1.3935271011912411 0.010226195401110092 1.8345385414078377 0.9988904607553869 1.9066032046237675 242.62500000000003 0.043403729110968341 0.98763630110229816 1.5612458523281381 0.086694609447734439 4.0649075000000012 0.11326408807580875 0.41415536436447525 0.026098129441192042 1.1075718976418163 0.18484133425865926 0.97644227459920374 2.1421700000000006 0.27516312232727608 281.75000000000006 0.99522630498646913 1.6683716806861293 0.39675858864212143 72.575231000000016 1.7333868713679599 0.14033815302900543 0.63818057647428994 4.7585992907801424 0.19290349173490182 0.85904485793124008 255.50000000000003 1.500227272727273 0.98202121640215878 0.084674665889927656
decision_type=2 2 2 2 2 2 2 2 2 2 2 2 2 2 2 2 2 2 2 2 2 2 2 2 2 2 2 2 2 2 2 2 2 2 2 2 2 2 2 2 2 2 2 2 2 2 2 2 2 2
left_child=1 8 10 4 11 12 13 9 15 24 32 23 -6 18 28 46 -13 37 42 -15 -10 -19 -22 45 -5 -16 -26 38 41 -23 34 33 47 -9 -7 48 -12 -18 -11 -40 -29 -8 -4 -44 -27 -3 -1 -2 -28 -30
right_child=2 3 6 7 5 30 14 31 20 27 36 16 -14 19 25 -17 17 21 -20 -21 22 29 -24 -25 26 44 35 40 49 -31 -32 -33 -34 -35 -36 -37 -38 -39 39 -41 -42 -43 43 -45 -46 -47 -48 -49 -50 -51
leaf_value=0.041251817418307794 -0.0050899898134061988 0.012966701332479716 0.0093738802708685405 0.021320439428091049 0.028776034209736148 0.018497645870052478 0.0011899935422446002 -0.0042113101860094398 0.021286501563512361 0.0027447333455021526 -0.0083917153749933221 0.021509180550999714 0.043974364380682668 0.0067057931166211214 -0.0068029365268212766 0.032490305198977394 0.014434982171186654 0.0078388826526731605 -0.0034784830401878098 0.018142949715256689 0.034380373249693612 0.010309136531182699 0.025979531492765356 0.00064926096000769923 0.0052370402626582381 -0.0031845747989780269 0.014673093823797029 0.0020439629274775026 -0.0026647025191649989 0.017711760284932886 0.02239670158887748 0.0024309578735483232 -0.0065112406099149776 0.0030577954947061483 0.010627830722792582 0.016887672505237993 -0.0098920623632294813 0.020452345779631287 0.0043353122565895318 0.010346901443074732 0.0068974878043047199 0.0071596556642491904 0.0022704336308659273 0.0080814164435571954 0.0021158447796055537 0.0053807380748912698 0.04733416759967804 -0.0019092748065396578 0.0082625448843464261 5.7819471184610714e-05
leaf_weight=41 199 20 21 20 33 37 97 72 26 29 853 33 31 27 116 24 39 84 37 25 41 35 41 38 21 322 23 109 142 37 32 64 463 21 22 45 634 48 45 85 42 21 78 23 22 20 25 79 30 121
leaf_count=41 199 20 21 20 33 37 97 72 26 29 853 33 31 27 116 24 39 84 37 25 41 35 41 38 21 322 23 109 142 37 32 64 463 21 22 45 634 48 45 85 42 21 78 23 22 20 25 79 30 121
internal_value=6.95675e-12 0.0140259 -0.00561465 0.0105232 0.0162445 0.0254693 -0.000767957 0.00571771 0.0337508 0.00790278 -0.00790312 0.0122054 0.0361377 0.00505092 -0.00222787 0.040605 0.0142359 0.0132481 0.00271141 0.0122044 0.0280389 0.0107348 0.03018 0.00502078 0.0135373 -0.00384353 0.0122292 0.00537632 -0.00027719 0.0141133 0.0179661 -0.000531333 -0.00563893 -0.0025699 0.0155631 0.0137276 -0.00903141 0.0177549 0.00725895 0.00826597 0.00339395 0.00225239 0.00458867 0.00359373 -0.00284559 0.00917372 0.0435557 -0.00418612 0.0110445 -0.00141214
internal_weight=4593 1313 3280 1115 509 155 1052 606 198 449 2228 354 64 211 841 90 276 243 159 52 108 156 82 78 139 460 119 310 381 72 91 157 741 93 59 98 1487 87 159 130 151 118 122 101 344 40 66 278 53 263
internal_count=4593 1313 3280 1115 509 155 1052 606 198 449 2228 354 64 211 841 90 276 243 159 52 108 156 82 78 139 460 119 310 381 72 91 157 741 93 59 98 1487 87 159 130 151 118 122 101 344 40 66 278 53 263
is_linear=0
shrinkage=0.1


Tree=5
num_leaves=51
num_cat=0
split_feature=93 98 75 145 174 93 93 75 172 145 172 151 151 138 151 48 122 125 151 142 174 145 93 142 65 75 145 37 125 11 122 62 142 151 174 98 174 111 162 151 151 98 29 138 174 35 174 29 98 174
split_gain=33.7721 5.46769 4.75273 1.05946 0.971285 0.825269 0.614334 0.611134 0.340586 0.299222 0.293609 0.272914 0.259684 0.213827 0.203098 0.182453 0.176679 0.163551 0.157086 0.146992 0.127304 0.114962 0.0996934 0.0986388 0.0946196 0.0888873 0.0867213 0.0820367 0.0808494 0.0796064 0.0706528 0.0700859 0.0604025 0.0570539 0.0542935 0.0509158 0.0568133 0.0503172 0.0469353 0.0439966 0.0439333 0.0493554 0.0490524 0.0395513 0.0382183 0.0359148 0.0357264 0.035705 0.0355 0.0353954
threshold=0.4816353698542955 0.12589517788147928 0.70198013415892679 1.3573101312944285 1.8889707809224321 0.32403836450426921 0.64543808728761809 0.89681296514649567 3.0069444444444451 1.3573101312944285 1.5777036533909532 0.071592381541624464 0.04521011955828623 1.4435039170799955 0.083896035119503887 72.758122500000013 3.0226979388726822 3.3281276487187936 0.019643658003947243 0.087292693859255949 1.3901511787318159 1.857276272577997 0.38701728969860294 1.4623575173700945 0.012857750000000001 0.030939708288440709 4.564934612921979 5096.257533500001 5.446130219264659 311.05000000000007 3.8268160541340857 -0.13677662499999996 -0.10646813164959727 0.04521011955828623 2.0168405365126678 0.22862495941651897 3.567845940523851 0.60562848029632121 0.91220907903967785 0.029051196206070041 0.032268578609149334 0.54292791321042022 3.8656385000000006 1.337339161439467 3.2269862807176244 4.1830793000000011 3.5521645021645027 3.8154364000000007 0.328382123195953 2.0971063852531064
decision_type=2 2 2 2 2 2 2 2 2 2 2 2 2 2 2 2 2 2 2 2 2 2 2 2 2 2 2 2 2 2 2 2 2 2 2 2 2 2 2 2 2 2 2 2 2 2 2 2 2 2
left_child=1 3 6 11 13 9 8 18 15 14 38 -1 22 23 46 -2 27 -13 26 -17 -9 24 31 -3 -14 29 49 -5 40 -19 39 -7 -24 -12 -18 36 47 43 -8 -30 41 -21 -43 -22 -20 -34 -6 -11 -23 -4
right_child=2 4 7 16 5 12 10 20 -10 35 33 17 21 -15 -16 19 34 25 44 28 37 48 32 -25 -26 -27 -28 -29 30 -31 -32 -33 45 -35 -36 -37 -38 -39 -40 -41 -42 42 -44 -45 -46 -47 -48 -49 -50 -51
leaf_value=0.024207628210601601 -0.0033328569891940187 0.0046558114442494559 -0.0070648614679150248 0.021293954906009493 0.016385027317499575 0.0066408457934812766 6.5785855247033019e-05 -0.0086841502356624807 0.014185605392049183 0.011921111959964037 0.00077001449147519904 0.029952511870685747 0.014002739738672974 0.013003118141837742 0.029649250615726819 0.011701029306277633 0.01399918188629993 0.036027233472892217 -0.0033945865949379407 0.0036017436542449734 -0.0081168889704817983 0.014331036585975777 0.012405331460759044 -0.0017943370835603895 0.022540428213499213 0.032744910128414628 -0.0036803054496075942 0.030242890566587452 0.0061754545944202096 0.042417622289874335 0.0029206493928722924 0.012776521506371447 0.005429746329265208 0.0037286722102483818 0.020675705577291193 0.012469703744676326 0.019996567522840843 -0.0061972070774426232 -0.0029121372374558956 0.012191329293418677 0.0046493560876556192 -0.0043940094635399876 0.0013014141182910892 -0.0035300330113386736 -0.00078541439852185106 0.00944219364784658 0.02222475599497557 0.016682396509817669 0.0086501297255215989 -0.0052702419572707385
leaf_weight=23 36 66 247 21 22 24 63 898 32 21 203 34 25 23 33 24 29 35 194 65 313 22 20 37 27 25 183 20 31 44 40 83 87 96 21 31 42 422 331 20 66 20 62 20 79 30 20 63 22 198
leaf_count=23 36 66 247 21 22 24 63 898 32 21 203 34 25 23 33 24 29 35 194 65 313 22 20 37 27 25 183 20 31 44 40 83 87 96 21 31 42 422 331 20 66 20 62 20 79 30 20 63 22 198
internal_value=-2.84444e-12 0.0167918 -0.00437888 0.0294179 0.0122334 0.0139842 0.00115257 -0.00673743 0.00429457 0.0185825 -0.000642868 0.0342926 0.0108466 0.00428543 0.0237785 0.00342503 0.0207934 0.0359735 -0.0046422 0.00416675 -0.00787948 0.0152526 0.00911308 0.00233877 0.0184358 0.0379418 -0.00551278 0.0256593 0.00357194 0.0395864 0.00606694 0.0114003 0.00732672 0.00171995 0.0168033 0.0161003 0.0169936 -0.0069224 -0.00243597 0.00853462 0.002506 0.00154368 -8.77136e-05 -0.0078414 -0.00263955 0.00645858 0.0191659 0.0154921 0.0114906 -0.00626636
internal_weight=4593 950 3643 252 698 572 1089 2554 396 232 693 161 340 126 75 364 91 138 901 328 1653 96 244 103 52 104 628 41 304 79 91 107 137 299 50 157 126 755 394 51 213 147 82 333 273 117 42 84 44 445
internal_count=4593 950 3643 252 698 572 1089 2554 396 232 693 161 340 126 75 364 91 138 901 328 1653 96 244 103 52 104 628 41 304 79 91 107 137 299 50 157 126 755 394 51 213 147 82 333 273 117 42 84 44 445
is_linear=0
shrinkage=0.1


Tree=6
num_leaves=51
num_cat=0
split_feature=93 145 93 93 175 93 93 93 175 116 93 121 116 48 145 93 140 49 99 93 140 81 99 83 175 79 145 99 145 175 118 83 116 175 175 117 145 101 106 37 99 121 49 93 59 59 52 99 99 93
split_gain=27.3554 4.13926 3.70335 1.48673 0.727986 0.726366 0.614422 0.34149 0.218843 0.20833 0.217485 0.208953 0.170588 0.144959 0.138559 0.133441 0.132278 0.123321 0.0996628 0.0964031 0.0872638 0.178784 0.0820954 0.0871317 0.0776733 0.0735197 0.0698539 0.069718 0.0684736 0.0681684 0.0679756 0.0663073 0.0639136 0.0623342 0.0620772 0.0616337 0.0604867 0.0593698 0.0547089 0.0729193 0.049776 0.0565702 0.0496861 0.0481515 0.0475626 0.044318 0.0429577 0.039648 0.039534 0.0394425
threshold=0.4816353698542955 1.3838401524239667 0.77561669931141519 0.19745320773032449 1.9763305322128855 0.91280165952972425 0.31822740947578659 0.63834301671104521 9.1060106774668643 0.18649811419457038 0.086610063586916322 2.8972237341855265 0.27647884296466574 72.758122500000013 4.3752208809930968 0.98529113841509586 -0.32934747207183807 77.069163750000016 0.58967350789590511 0.28020399477910518 1.1158358217869091 0.73730216915015712 0.45929580135165199 0.059373567173591692 7.1408730158730167 0.91809270099807561 0.14901517366653072 0.38585603228690807 3.4753857551782974 4.3086080586080593 0.42850491412624414 0.16142751372959172 0.62544387774977894 5.3371212121212128 4.074248519543044 0.3647558172721907 4.5777671263798796 0.96625538816661483 0.80376221696848982 12221.429778500002 0.91411603298305233 3.6278136712330755 76.283319358054229 0.97085784425587629 0.076486000000000012 0.17636150000000003 75.826393150000015 0.91753519988029397 0.91303667657832099 0.698070739179255
decision_type=2 2 2 2 2 2 2 2 2 2 2 2 2 2 2 2 2 2 2 2 2 2 2 2 2 2 2 2 2 2 2 2 2 2 2 2 2 2 2 2 2 2 2 2 2 2 2 2 2 2
left_child=1 3 7 9 19 14 12 8 13 -1 26 44 -6 -2 33 36 -5 18 24 -3 21 -14 23 -18 28 38 -11 46 -8 -27 37 34 -33 48 -15 -29 -7 -20 39 -9 -16 -42 -34 -38 -12 -32 -23 -35 -4 -31
right_child=2 4 5 16 6 15 17 25 -10 10 11 -13 20 31 40 -17 22 -19 30 -21 -22 27 -24 -25 -26 29 -28 35 -30 49 45 32 42 47 -36 -37 43 -39 -40 -41 41 -43 -44 -45 -46 -47 -48 -49 -50 -51
leaf_value=0.024613303011546864 -0.0034804316361745202 0.0055134392792830986 -0.003556481963643999 0.020341934468079775 0.0089650320931292712 -0.0070441007511563188 0.0084685395693388562 0.0013988041074677066 0.011066182007571349 0.04124716086821123 0.027841066990209662 0.019878771333023907 0.025509002894163132 0.0041762396320700647 0.0027349837856794085 -0.0079856564372919152 0.010096659343689682 0.016351473289118571 0.013553131220950969 -0.00099655992454952672 0.010991299793716859 0.016670876139631637 0.0079904264041587066 0.018617793843150137 0.015946521813219244 -0.0020644745697691131 0.033972571496710638 0.01819343543301026 0.014857653845101597 0.002447793442015983 0.0065279526966200638 0.0018029493602827167 0.0035210206908035421 0.0013427164664160675 0.011265170243790463 0.012593659096838614 -0.0049292625914241555 0.007235499016264928 -0.0028604669874766845 0.0072499416307047274 -0.0029066354221645363 0.00033849356522959836 0.0080938080412202643 -0.0066763996186637092 0.033452577888965607 0.0016406553107247289 0.021804763787908348 -0.003173736435687774 -0.005401417901309268 -0.00057867540379187891
leaf_weight=53 30 46 182 36 31 513 104 89 39 22 23 20 25 30 24 681 20 22 21 45 22 39 23 30 22 189 33 30 20 73 55 149 74 26 21 57 411 51 20 28 196 74 35 256 44 28 28 77 321 105
leaf_count=53 30 46 182 36 31 513 104 89 39 22 23 20 25 30 24 681 20 22 21 45 22 39 23 30 22 189 33 30 20 73 55 149 74 26 21 57 411 51 20 28 196 74 35 256 44 28 28 77 321 105
internal_value=-3.00559e-12 0.0151127 -0.00394099 0.024735 0.0105845 -0.00574305 0.0119438 0.00170014 0.00397223 0.0299634 0.0319603 0.0288487 0.0158698 0.00315611 -0.00341068 -0.00687101 0.0153813 0.00912396 0.0085957 0.00229421 0.0169347 0.0176652 0.0129349 0.0152093 0.0104706 -3.91885e-06 0.0368824 0.0163918 0.00949904 -0.000741847 0.00682969 0.00380043 0.00314914 -0.00427492 0.00709521 0.0145246 -0.00622772 0.00907814 0.00197287 0.00279908 -0.00162929 -0.00201723 0.00498935 -0.00559983 0.0315262 0.00487923 0.0188164 -0.00203366 -0.00473387 0.000662517
internal_weight=4593 950 3643 304 646 2761 555 882 378 195 142 87 232 339 900 1861 109 323 301 91 201 179 73 50 146 504 55 154 124 367 155 309 258 606 51 87 1180 72 137 117 294 270 109 667 67 83 67 103 503 178
internal_count=4593 950 3643 304 646 2761 555 882 378 195 142 87 232 339 900 1861 109 323 301 91 201 179 73 50 146 504 55 154 124 367 155 309 258 606 51 87 1180 72 137 117 294 270 109 667 67 83 67 103 503 178
is_linear=0
shrinkage=0.1


Tree=7
num_leaves=51
num_cat=0
split_feature=82 82 82 57 82 161 82 147 149 104 138 120 99 82 57 161 147 87 109 99 112 134 161 138 3 86 55 138 31 161 99 177 54 45 45 91 161 91 171 109 138 87 82 57 149 68 58 58 165 161
split_gain=22.5915 3.893 2.61957 0.730925 0.831646 0.399326 0.315353 0.310889 0.270594 0.439866 0.176372 0.141036 0.13332 0.124148 0.117149 0.112537 0.111698 0.101474 0.0945965 0.087389 0.0813263 0.125356 0.0791999 0.0775664 0.0956244 0.0761932 0.0749703 0.070925 0.0673523 0.0614008 0.0597874 0.0583696 0.0564263 0.0907114 0.0517328 0.0476124 0.0442623 0.0441021 0.0498628 0.0419813 0.0409644 0.0403597 0.0390439 0.0384499 0.0381917 0.0370448 0.03603 0.0384181 0.0355801 0.0340089
threshold=0.49139644983810016 0.1491231153619158 0.80180380652530647 75.457658050000006 0.29587233126134155 0.96282891483556454 0.63684790532725044 0.22532427768190172 0.013000346661473799 2.3808942937198299 0.28165005038318464 0.8056223350396513 0.58967350789590511 0.23062639232888679 72.439558450000007 0.86138420523684911 0.35007792256343045 0.28713753722313501 0.20218925564651088 0.25088130316673968 1.6667850407789369 4.3458857092949232 0.92617960733121107 0.33890126529461545 389.50000000000006 0.86385616421902844 71.760376000000022 0.26052898288994686 3.9846826250000005 0.98095962339308351 0.77559359516495618 11.917184265010354 76.171869000000015 7107.9802678500009 7890.0532311000006 0.0013785639009940473 0.90280738757711509 0.48842646461913142 1.6540068259662009 0.47100201088325905 0.11571689176533835 0.85371781518613865 0.39837677220630974 76.58960337500001 0.04024818754046873 0.077847549999999946 -0.16680549999999997 -0.13729 0.97576730347635465 0.88411185385927948
decision_type=2 2 2 2 2 2 2 2 2 2 2 2 2 2 2 2 2 2 2 2 2 2 2 2 2 2 2 2 2 2 2 2 2 2 2 2 2 2 2 2 2 2 2 2 2 2 2 2 2 2
left_child=1 7 6 17 13 25 14 8 -1 10 28 -6 16 19 -2 -16 27 26 44 -5 30 31 37 -9 -25 34 40 -13 -10 -7 43 -22 -17 49 -4 46 -21 38 -20 -29 -3 -24 -41 -14 -8 -19 -15 -48 -40 -34
right_child=2 3 5 4 11 29 18 23 9 -11 -12 12 20 35 15 32 -18 45 22 36 21 -23 41 24 -26 -27 -28 39 -30 -31 -32 -33 33 -35 -36 -37 -38 -39 48 42 -42 -43 -44 -45 -46 -47 47 -49 -50 -51
leaf_value=0.029755843108570254 -0.0022104920192976439 0.0063839545190010382 -0.0041883607303676703 0.014215563752998909 0.01652165637129829 -0.0058273325241860194 -0.0039406761448342528 0.035045525561208317 0.024020590001185026 0.011812288193898492 0.017768262193671294 0.014398793485015632 0.0069735962728207758 0.010483160956895778 0.0097105670290497641 0.0017522268497536112 0.014852063488718627 -0.0032157444536847915 -0.0027791282391915911 0.019032959021786425 0.0089689328908347157 0.004386414090792338 -0.00091052679985295984 0.022793790315045043 0.032248314048932948 -0.0047825326231153067 0.009941836427897215 0.012338112406432629 0.030956639562334333 -0.0071072257857750197 0.0093842911941465004 0.01615465696901083 0.0062666293078412613 0.010175522207282484 -0.0021068613992666187 0.018050048034638166 0.02464978113770485 0.0041612780242423087 0.0050206430544633245 0.0081660459811765968 0.00068827323016843627 -0.0046153286239132285 0.0034672821761064588 0.0021640644372810667 -0.001268385547061596 0.0019505551829934122 0.018122857958078383 0.01301703303220815 0.00067831561091713987 0.0021277383418443303
leaf_weight=37 42 23 218 30 21 689 105 23 28 43 28 20 22 35 26 185 37 23 39 47 26 39 130 20 23 534 25 20 28 822 20 20 27 23 264 24 20 38 21 112 28 38 21 68 109 35 20 56 186 75
leaf_count=37 42 23 218 30 21 689 105 23 28 43 28 20 22 35 26 185 37 23 39 47 26 39 130 20 23 534 25 20 28 822 20 20 27 23 264 24 20 38 21 112 28 38 21 68 109 35 20 56 186 75
internal_value=-1.63591e-11 0.0131097 -0.00375193 0.00978376 0.0111547 -0.0054928 0.000461857 0.0245626 0.0222303 0.0200378 0.0242485 0.00853109 0.00811677 0.0159721 0.00276882 0.00339123 0.00986512 0.00305191 -0.000847497 0.0187012 0.00623393 0.00855712 -2.74518e-05 0.0303581 0.0278509 -0.00395979 0.0054559 0.00879854 0.0274886 -0.00652361 0.00443874 0.0120932 0.00286122 0.00450253 -0.00304829 0.0140113 0.0207096 0.000990644 0.000500871 0.00806649 0.00325691 -0.00174852 0.00742414 0.00333973 -0.00257956 -9.81498e-05 0.013138 0.0143607 0.00111884 0.00322333
internal_weight=4593 1022 3571 792 658 2527 1044 230 164 127 84 426 405 232 378 336 210 134 666 97 195 85 452 66 43 1016 76 173 56 1511 110 46 310 125 482 135 67 284 246 153 51 168 133 90 214 58 111 76 207 102
internal_count=4593 1022 3571 792 658 2527 1044 230 164 127 84 426 405 232 378 336 210 134 666 97 195 85 452 66 43 1016 76 173 56 1511 110 46 310 125 482 135 67 284 246 153 51 168 133 90 214 58 111 76 207 102
is_linear=0
shrinkage=0.1


Tree=8
num_leaves=51
num_cat=0
split_feature=77 77 86 51 77 144 86 72 86 39 24 88 177 105 72 39 86 144 131 144 144 144 73 144 144 73 77 92 144 25 77 144 92 90 17 177 144 51 54 48 144 176 77 72 17 31 105 39 92 25
split_gain=18.4554 2.83083 2.41828 0.771823 0.615831 0.456731 0.401923 0.297636 0.250073 0.164004 0.141089 0.137415 0.12701 0.122034 0.158763 0.114088 0.102876 0.0964309 0.0841431 0.0969198 0.0757867 0.0744219 0.0732673 0.0726075 0.0668184 0.0647974 0.0631248 0.0631153 0.059281 0.0585282 0.0570328 0.0569676 0.0568168 0.0553682 0.0548867 0.054673 0.0493007 0.0484826 0.0477625 0.0426788 0.0415566 0.0406839 0.035745 0.0374959 0.0345811 0.0334259 0.0394789 0.0313014 0.0326375 0.0301527
threshold=0.60516296518358914 0.18053226169064751 0.70292406354304193 71.634307300000017 0.36233477062274694 1.330693069306931 0.90167953721132565 0.0046876140016333502 0.32993332738286801 1605.8127027590438 0.10410217363387347 0.85289661464672739 14.903535353535354 0.10054407171537805 0.18733308336244706 467.63076483193146 0.22842765041123467 0.67066575974669507 1.4451461621489132 3.5248309796055 3.2788886334113934 0.14125745138865517 0.044202533264415478 3.865189882470927 3.8381981488524599 0.93209901220630165 0.89515522203356934 0.39593739593739602 0.069230115373172849 3.8493085000000007 0.89361043817147678 3.8496974335420289 0.12646439383967359 0.26132598130872137 0.049901068210601814 8.1441558441558453 4.5854225342751898 75.414628575000009 76.180675000000022 76.879838000000021 1.469438907129456 6.8416666666666677 0.44431013431013439 0.30130630649528689 0.064232796430587782 4.0814671250000005 0.55494124448920856 51192.423538910618 0.99957827378915398 1.9263630000000003
decision_type=2 2 2 2 2 2 2 2 2 2 2 2 2 2 2 2 2 2 2 2 2 2 2 2 2 2 2 2 2 2 2 2 2 2 2 2 2 2 2 2 2 2 2 2 2 2 2 2 2 2
left_child=1 5 8 16 13 7 23 28 10 17 -2 12 31 -5 39 21 40 -6 -12 -20 22 -9 37 30 -13 36 -25 -7 -1 -11 41 49 -17 -34 45 -24 -8 42 -14 -15 -3 -4 -19 -44 -27 46 -16 48 -28 -10
right_child=2 3 6 4 9 27 25 15 11 29 18 24 38 14 34 32 -18 20 19 -21 -22 -23 35 26 -26 44 47 -29 -30 -31 -32 -33 33 -35 -36 -37 -38 -39 -40 -41 -42 -43 43 -45 -46 -47 -48 -49 -50 -51
leaf_value=0.022139756344258785 -0.0021332729740866593 0.0077195864326010154 -0.0032023621531703885 0.0097376029752194882 0.012912792925323761 0.011038178938130538 -0.0058769365386053159 0.027257503569126131 -0.0035599456215277313 0.017817022151906382 0.0095370277386879736 -0.0025590157289291926 0.0029246122702150735 0.018586120222296037 0.014526481864353022 0.024759623110294345 -0.001922343838278477 0.0089866691289676569 0.0027204593205941751 0.0087489143733612516 0.011999377346364783 0.01863068763166666 0.0036856165532341504 0.0012296616254151677 0.0001296722394983078 -0.0064940899339218598 -0.004874477577525088 0.01829049192601815 0.014956691309257789 0.011116739292629064 -0.0047561594474588194 0.0055749457213096322 0.032870967076583345 0.026630012158836636 0.01899313647300005 0.0094902557157911377 -0.0043419850733858257 0.010176562315588682 0.0083448156547845063 0.024061227496713401 0.0027460485132126322 0.0010087459873050519 0.0073471938164379365 0.002550765992990429 -0.0022849406953901054 0.016113531560851976 0.009212797440604532 -1.8797472293954342e-05 -0.0025028655032717229 0.00044617417885781888
leaf_weight=20 35 24 127 30 35 30 440 20 20 22 31 207 37 35 27 20 41 45 139 33 32 20 86 46 167 811 72 20 27 32 340 21 44 21 20 20 399 69 29 24 56 28 39 28 20 26 29 40 299 310
leaf_count=20 35 24 127 30 35 30 440 20 20 22 31 207 37 35 27 20 41 45 139 33 32 20 86 46 167 811 72 20 27 32 340 21 44 21 20 20 399 69 29 24 56 28 39 28 20 26 29 40 299 310
internal_value=3.53219e-12 0.0124794 -0.00321983 0.00943541 0.010907 0.0223518 -0.0048321 0.0247973 0.000888416 0.00871312 0.00373043 3.32974e-05 0.00128153 0.0155933 0.0166844 0.0273481 0.00215068 0.00793006 0.00474141 0.00387708 0.00738336 0.0229441 0.00686869 -0.00319229 -0.00135845 -0.00576689 -0.00228338 0.0139391 0.0180133 0.0138465 -0.00403141 0.000524755 0.0294205 0.0308547 0.0142961 0.00478083 -0.00514697 0.00809141 0.00530622 0.0208133 0.00423811 -0.00244165 0.0068068 0.00534272 -0.00639279 0.0131505 0.0117748 -0.00267657 -0.00296312 0.000203379
internal_weight=4593 942 3651 720 599 222 2622 172 1029 408 238 791 417 191 161 125 121 354 203 172 319 40 287 952 374 1670 457 50 47 54 495 351 85 65 102 106 839 181 66 59 80 155 112 67 831 82 56 411 371 330
internal_count=4593 942 3651 720 599 222 2622 172 1029 408 238 791 417 191 161 125 121 354 203 172 319 40 287 952 374 1670 457 50 47 54 495 351 85 65 102 106 839 181 66 59 80 155 112 67 831 82 56 411 371 330
is_linear=0
shrinkage=0.1


Tree=9
num_leaves=51
num_cat=0
split_feature=87 87 87 144 87 155 13 144 174 13 87 13 144 32 52 13 161 10 144 102 34 87 127 54 174 30 116 34 177 160 13 140 177 144 10 174 87 127 9 144 87 13 50 116 65 155 18 32 144 87
split_gain=14.6096 2.98373 1.40602 0.716892 0.405974 0.308171 0.30652 0.286577 0.24567 0.207982 0.160811 0.146472 0.144081 0.178482 0.132146 0.111519 0.105523 0.0916648 0.103974 0.0860309 0.076058 0.0750897 0.0731148 0.0709279 0.068694 0.0675578 0.0660329 0.0604636 0.0596693 0.057845 0.0577906 0.0664306 0.0569086 0.0558281 0.0524611 0.0485091 0.0477767 0.0442287 0.0434547 0.041239 0.0387303 0.03778 0.0376145 0.0375449 0.0360428 0.0337522 0.0313303 0.0311166 0.0311087 0.0308598
threshold=0.53585283902790659 0.1007068156587179 0.88087060748265567 0.74803590085906657 0.30166012263057079 0.12278330180086229 0.44326269708653809 1.3512156526985895 1.8889707809224321 0.062314753179825495 0.18736673684798646 0.37785238029799123 1.0000000180025095e-35 1.9894585000000002 71.553906500000025 0.17037405810198761 0.89511980110426559 550.87500000000011 0.45335950764006799 1.2471251416180402 4.1174481500000004 0.20198298646550153 1.0757131798953916 76.551388250000016 3.6932692307692316 3.9759874500000003 0.31225659995506333 1.9977483500000004 1.9261307231827682 0.020820161928239347 0.28694907263901581 -0.60166666666666646 5.95494981277304 3.3516841420918504 2340.5000000000005 1.3338014981273409 0.6687508803936445 0.94937684550737378 451.75000000000006 3.1698443121348991 0.73392667921982668 0.20185006026053945 0.65863881505563115 0.32335526520533325 0.029750000000000002 0.22527989523614025 0.086594448052346715 4.1000192499999999 0.19725129475951572 0.93028011042681469
decision_type=2 2 2 2 2 2 2 2 2 2 2 2 2 2 2 2 2 2 2 2 2 2 2 2 2 2 2 2 2 2 2 2 2 2 2 2 2 2 2 2 2 2 2 2 2 2 2 2 2 2
left_child=1 7 5 10 8 28 14 12 27 29 48 16 26 -14 44 -12 -7 18 20 -9 -15 22 46 38 32 -24 -1 -5 -2 35 39 -32 40 37 49 -4 -30 -13 -23 43 -18 -36 -34 -16 -6 -33 -10 -26 -3 -11
right_child=2 3 9 4 6 11 -8 19 21 34 15 33 13 17 30 -17 24 -19 -20 -21 -22 23 25 -25 47 -27 -28 -29 36 -31 31 45 42 -35 41 -37 -38 -39 -40 -41 -42 -43 -44 -45 -46 -47 -48 -49 -50 -51
leaf_value=0.023298861281099648 -0.0073622854257171799 0.021700297296047211 -0.0060103643394189077 0.0016217464915306273 -0.0051957292854785918 0.0025524555097055984 0.013401837837561964 0.017092928051715719 0.014331999064442961 -0.0028340176222079049 0.0089229483075576113 0.0045626413321033831 0.029218782112002375 0.015595087958943278 0.0059664271154011104 0.016818817111629029 0.0050982564641647819 0.023743252100289935 0.012228738508253758 0.0087322982028126724 0.023835777491331103 0.0060995582407521245 0.0037836511740865914 0.012587853652183657 0.0011160342356431232 0.010936677131441332 0.030962081771829852 0.0077115395956713229 0.00024477380672590688 -0.0025557250946935646 0.0022853274635660152 0.0060353492264403029 -0.0011286291910809199 0.0017722648521885276 -0.0028812453939105597 -0.0048094873557937359 -0.0024770284263525332 0.011133455359376968 0.011193301849998534 0.0057574112228947977 -0.000860161273740232 3.5263312359650933e-05 -0.005260337163538983 0.0018845226862963798 0.00049975533084943894 0.011845015714643524 0.011078953888500109 0.005629786844587043 0.016544349417090414 -0.0043738441654098325
leaf_weight=22 22 22 827 56 20 180 31 32 47 189 53 21 20 21 26 27 24 28 28 20 24 103 23 27 56 31 23 23 77 69 24 20 269 25 171 567 397 20 20 46 20 60 24 169 25 20 80 21 25 418
leaf_count=22 22 22 827 56 20 180 31 32 47 189 53 21 20 21 26 27 24 28 28 20 24 103 23 27 56 31 23 23 77 69 24 20 269 25 171 567 397 20 20 46 20 60 24 169 25 20 80 21 25 418
internal_value=-1.5378e-13 0.00983856 -0.00323304 0.00734111 0.00622137 -0.000387752 0.00387124 0.0203554 0.00840526 -0.00466248 0.0143153 0.00102767 0.0223846 0.020588 0.00302711 0.0115878 0.000531096 0.0188789 0.0170132 0.0138773 0.0199901 0.00960113 0.0109723 0.00794662 -0.000347756 0.00789002 0.0272156 0.00339472 -0.00227118 -0.00538202 0.00377347 0.00644461 -0.000963485 0.00549684 -0.00340629 -0.00552192 -0.00203488 0.00776792 0.00692781 0.00306412 0.00238988 -0.00212371 -0.00146706 0.00242878 -0.00203157 0.00894018 0.0122828 0.00234706 0.0189578 -0.00389439
internal_weight=4593 1136 3457 918 791 1156 381 218 410 2301 127 660 166 121 350 80 594 101 73 52 45 331 181 150 414 54 45 79 496 1463 305 64 337 66 838 1394 474 41 123 241 44 231 293 195 45 40 127 77 47 607
internal_count=4593 1136 3457 918 791 1156 381 218 410 2301 127 660 166 121 350 80 594 101 73 52 45 331 181 150 414 54 45 79 496 1463 305 64 337 66 838 1394 474 41 123 241 44 231 293 195 45 40 127 77 47 607
is_linear=0
shrinkage=0.1


Tree=10
num_leaves=51
num_cat=0
split_feature=99 99 74 174 144 13 141 99 148 65 99 94 78 174 78 94 148 144 148 160 168 47 148 150 108 174 141 141 148 95 47 99 13 144 74 30 99 94 160 174 174 148 150 13 78 144 176 74 109 13
split_gain=11.7039 1.85123 1.45483 0.6195 0.440803 0.319664 0.302553 0.266082 0.183301 0.179346 0.178006 0.176354 0.142425 0.132088 0.125954 0.111048 0.0986267 0.200851 0.0929849 0.0891262 0.0877213 0.070081 0.065517 0.0653856 0.0649418 0.0604556 0.0585048 0.0577857 0.055416 0.0554081 0.0498402 0.0600601 0.049756 0.0496128 0.0478879 0.0475535 0.0473791 0.0455779 0.062468 0.0420944 0.0406821 0.0376808 0.0344994 0.0334671 0.0327259 0.0323211 0.0318749 0.0340081 0.0314968 0.0310703
threshold=0.68973751498779323 0.2050968498690037 0.67189928276663935 3.3067457664884139 1.330693069306931 0.28694907263901581 -0.14311974789915963 0.38585603228690807 0.039553365111394977 0.027350000000000003 0.89438644239660359 0.00542481820864835 0.88708191917350654 1.8334677961543637 0.65353773271938331 0.34270564597682412 0.17431573707974585 0.069230115373172849 0.13392605286447548 0.041026707393549154 1.2470930232558142 74.841269000000011 0.16777243664366417 0.079524351290698223 0.10137012103881925 1.5819427309339462 -0.17344282812159903 0.56313216559629387 0.15774880430407137 0.17456764599937202 75.602916500000006 0.50066007948173563 0.011441053520670654 0.67066575974669507 0.86355995293840537 3.9596931000000004 0.58967350789590511 0.11033394269402909 0.020959088114793859 2.1272321428571432 4.1005952380952388 0.1381920837673605 0.014054880224547438 0.207029367297384 0.91517571805266962 4.6920687150821427 24.071428571428573 0.0057250216285867966 0.42353312877090304 0.054121967497935804
decision_type=2 2 2 2 2 2 2 2 2 2 2 2 2 2 2 2 2 2 2 2 2 2 2 2 2 2 2 2 2 2 2 2 2 2 2 2 2 2 2 2 2 2 2 2 2 2 2 2 2 2
left_child=1 4 5 6 11 10 14 23 32 21 15 41 18 29 -3 24 17 -13 -7 42 46 -9 -6 -5 -2 -26 -19 -10 33 -8 31 -16 -4 -15 49 44 43 38 -27 -18 -38 -1 45 -23 -33 -12 47 -14 -20 -29
right_child=2 3 8 7 22 12 13 9 27 -11 19 16 20 28 30 -17 39 26 48 -21 -22 36 -24 -25 25 37 -28 34 -30 -31 -32 35 -34 -35 -36 -37 40 -39 -40 -41 -42 -43 -44 -45 -46 -47 -48 -49 -50 -51
leaf_value=0.011783156412738291 -0.0019986646710472172 0.013753995022852905 -0.0056855286064446276 0.013583399360514668 0.0057636563782580202 0.0027747409454812965 0.0020699157307927426 0.01095044263638556 0.0023265901650302112 0.015008886785577297 -0.0032532566498846963 0.025798899855683833 0.0052015083104682471 0.0080280084074253136 0.0089421052416350615 0.0072941358403667157 0.028781142701273379 0.018745435419475178 0.012497189073335559 0.0018653783512954582 0.0071469547082670037 0.0052991286140719532 0.012827001267979886 0.019697765050374946 -0.0038244023265388721 -0.00053877166064921769 0.011609551580622794 -0.0041132286799741759 0.0082356711432080842 -0.0031951918037787155 0.011354575909319379 -0.00037945911905768771 -0.004452182509619723 0.0028204190111915835 -0.0041254366638324444 0.0070906329887440878 0.00088153548034218456 0.00067222758135948189 0.0065438604793708888 0.022588656878187546 0.0069882486262213203 0.017512725699028429 -0.00095234962907585598 0.0091043228567656825 0.0050806196362134966 -6.7318165446132687e-05 -0.00082039744706384639 0.0010327736334353555 0.0069522019126452509 -0.0021023790435805048
leaf_weight=22 106 32 493 73 24 35 39 44 20 38 353 34 24 21 47 23 23 27 21 51 25 38 29 23 26 20 20 96 29 41 21 23 972 142 293 37 24 279 33 21 20 24 109 59 21 35 72 106 20 385
leaf_count=22 106 32 493 73 24 35 39 44 20 38 353 34 24 21 47 23 23 27 21 51 25 38 29 23 26 20 20 96 29 41 21 23 972 142 293 37 24 279 33 21 20 24 109 59 21 35 72 106 20 385
internal_value=5.41713e-12 0.00959308 -0.0026563 0.0072708 0.0175967 -4.31356e-05 0.00489364 0.0106465 -0.00420407 0.00875157 -0.000879451 0.0200663 0.00281359 0.00278546 0.00806172 0.000511695 0.0220145 0.0199442 0.00656054 -0.00211574 0.0015591 0.00746629 0.00962851 0.0150483 0.000175497 0.000819243 0.0157089 -0.00298049 0.00420793 -0.000628452 0.00683922 0.00609842 -0.00486723 0.00349134 -0.00311762 0.00444838 0.00637903 0.0011829 0.00387117 0.0258256 0.00365731 0.0147725 -0.00252427 0.00761363 0.00222649 -0.00296587 0.000867533 0.00180239 0.00979232 -0.00250371
internal_weight=4593 996 3597 772 224 1338 453 319 2259 223 1035 171 303 272 181 487 125 81 76 548 227 185 53 96 464 358 47 794 192 80 149 128 1465 163 774 81 141 332 53 44 44 46 497 97 44 388 202 130 41 481
internal_count=4593 996 3597 772 224 1338 453 319 2259 223 1035 171 303 272 181 487 125 81 76 548 227 185 53 96 464 358 47 794 192 80 149 128 1465 163 774 81 141 332 53 44 44 46 497 97 44 388 202 130 41 481
is_linear=0
shrinkage=0.1


Tree=11
num_leaves=51
num_cat=0
split_feature=77 82 76 135 173 77 159 154 1 141 148 148 154 136 174 1 129 136 160 173 42 82 56 163 175 160 129 148 141 82 163 160 174 148 163 76 175 141 129 165 141 154 82 157 77 171 20 76 141 56
split_gain=9.93099 1.50367 1.35202 0.483841 0.312005 0.234941 0.222733 0.212743 0.170147 0.164339 0.120594 0.109206 0.138784 0.103952 0.0950267 0.0850831 0.0973224 0.0798115 0.0754274 0.0697328 0.0687475 0.0503119 0.0683335 0.0480515 0.0456896 0.0431659 0.042756 0.0417544 0.0409918 0.040828 0.0393968 0.0367697 0.0348516 0.0379753 0.0341745 0.0344357 0.0340949 0.0327761 0.0323043 0.0377699 0.0320252 0.0380148 0.0309105 0.0293255 0.0264961 0.0285364 0.0259338 0.025699 0.0251968 0.0251386
threshold=0.60516296518358914 0.1491231153619158 0.81956533584147251 -0.015268065268065267 1.8894444444444447 0.36233477062274694 0.98639464408333943 0.098157829636824748 4.5000000000000009 1.1647520893394254 0.16285944642311245 0.15313419050853436 0.27230439577331861 1.6030303030303032 3.3727678571428577 40.500000000000007 0.29338918165816269 0.2440279482579549 0.026731833247045481 1.8894444444444447 2323.5152041250008 0.49139644983810016 76.869319350000026 0.95044638654141711 1.8000275785990074 0.036682716092434266 2.1437206007054246 0.055842877665923191 0.64671738182970817 0.9109033449457189 0.96191373932084978 0.032147052775793571 1.8790020263424521 0.14403867772254639 0.93019458311865988 0.17899012891188729 11.027432712215322 3.3185029804679735 1.0444828589672859 0.99009940390064988 2.3864380623299688 0.16375915188661452 0.077721023790790253 0.89406036599203664 0.48363992747492496 2.7254499498671305 0.14615808799862864 0.67922560287925526 1.1915889433300431 71.752911600000019
decision_type=2 2 2 2 2 2 2 2 2 2 2 2 2 2 2 2 2 2 2 2 2 2 2 2 2 2 2 2 2 2 2 2 2 2 2 2 2 2 2 2 2 2 2 2 2 2 2 2 2 2
left_child=1 4 7 5 9 14 19 24 10 -1 17 25 -13 -5 26 16 -9 -6 -18 30 -20 22 -17 40 -2 34 31 48 -21 -8 37 -3 33 -15 -7 -36 -14 43 -16 -40 41 47 -10 -4 45 -27 -44 -23 -26 -25
right_child=2 3 6 13 8 11 29 15 42 -11 -12 12 36 32 38 21 18 -19 20 28 -22 23 -24 49 27 44 -28 -29 -30 -31 -32 -33 -34 -35 35 -37 -38 -39 39 -41 -42 -43 46 -45 -46 -47 -48 -49 -50 -51
leaf_value=0.016308826013383539 -0.0058853647354143585 0.0071968940775031633 -0.0012140205431860522 0.0056644495146778917 0.015675487959136567 0.0098326917382991902 -0.0030160023561222431 0.0086233791263241859 0.023325576074421407 0.005150897778344877 0.019273695148326258 0.014367387317216549 0.0088925970122218142 -0.0025072830959641359 0.016616827417165043 0.00097344256583692553 8.5484397740484303e-05 0.0074319804603557877 0.0011714010313561743 0.0029291902702035652 0.0057044263750912604 0.00061911765172215853 0.0071949736965406276 0.0021958269072806266 -0.0028572021040941544 0.0089743073763591912 0.0046133564658124345 5.4347169966666568e-05 -0.0016181023864048083 -0.0045426938745315492 -0.0034954747416610903 0.012915311581243509 0.0038537556394225079 0.0017704205973940489 0.0090131189504807641 0.0052685085182019977 0.0035576334911520072 0.00027079877402554433 0.013224658566216628 0.0083337557991035299 0.0044190618605728467 0.0030152267691160536 0.017486249965926012 -0.0048724973732672747 0.0030898683023853945 0.0043589704216936151 0.022004084847867492 -0.0031395233529822337 0.00049556028701502961 -0.0011294620053075514
leaf_weight=22 22 23 50 52 24 33 201 28 40 33 37 39 25 49 20 51 88 23 57 21 81 87 27 26 132 21 22 146 354 1363 503 22 21 36 33 96 23 56 75 20 31 57 27 39 65 37 24 23 27 181
leaf_count=22 22 23 50 52 24 33 201 28 40 33 37 39 25 49 20 51 88 23 57 21 81 87 27 26 132 21 22 146 354 1363 503 22 21 36 33 96 23 56 75 20 31 57 27 39 65 37 24 23 27 181
internal_value=-4.49926e-12 0.00915437 -0.00236193 0.0068836 0.0161839 0.00827574 -0.00359605 0.000638697 0.0182487 0.00961407 0.0150033 0.00683533 0.00993642 0.00200227 0.0112199 0.00158058 0.00306223 0.0116414 0.00237323 -0.00244876 0.00383209 0.000801412 0.00312705 0.000353511 -0.00148414 0.00588867 0.00822626 -0.00116667 -0.00136345 -0.00434649 -0.00307683 0.00999256 0.000205728 -0.00069555 0.00696104 0.00622643 0.00633626 -0.00162458 0.012964 0.012195 0.00146724 0.000919294 0.0212445 -0.00281717 0.00447629 0.00603004 0.0196123 -0.00016678 -0.00228787 -0.000711793
internal_weight=4593 942 3651 712 230 554 2587 1064 175 55 84 372 87 158 182 737 254 47 226 1023 138 483 78 405 327 285 67 305 375 1564 648 45 106 85 162 129 48 145 115 95 198 167 91 89 123 58 51 110 159 207
internal_count=4593 942 3651 712 230 554 2587 1064 175 55 84 372 87 158 182 737 254 47 226 1023 138 483 78 405 327 285 67 305 375 1564 648 45 106 85 162 129 48 145 115 95 198 167 91 89 123 58 51 110 159 207
is_linear=0
shrinkage=0.1


Tree=12
num_leaves=51
num_cat=0
split_feature=77 77 153 135 77 143 143 153 163 172 46 50 143 153 72 72 172 138 54 85 163 175 77 143 46 175 72 177 65 177 169 81 72 138 175 153 172 65 46 131 65 153 175 175 138 176 99 54 29 138
split_gain=8.0441 1.22662 1.00198 0.395954 0.239548 0.233656 0.212505 0.275389 0.140991 0.105379 0.0996858 0.138642 0.0877866 0.0831554 0.081468 0.0782924 0.0689446 0.0671108 0.0645012 0.0941424 0.0603165 0.0596948 0.0543242 0.0514735 0.0490822 0.0580424 0.0420594 0.0416823 0.0414714 0.0386612 0.0366333 0.0352991 0.0339088 0.0333802 0.0321634 0.0320022 0.0316062 0.0313294 0.029922 0.0337548 0.0277796 0.027474 0.0273281 0.0268887 0.026704 0.0259749 0.0245216 0.0241386 0.0239203 0.0229588
threshold=0.60516296518358914 0.18053226169064751 0.056220167975828884 -0.015268065268065267 0.87507465068617651 0.31401482127288588 -0.089913867979154585 0.17256231752877391 0.97552982186009718 1.8655490628745781 7418.1394274000004 0.43482586699093523 1.6173828680579303 0.089504522275112644 0.029235556279591252 0.28213366081576702 1.7155304726212395 0.15524838135655117 76.475761250000019 0.013248126697287308 0.94421853839865511 1.9072370812527504 0.48363992747492496 0.043403729110968341 4296.1839546500005 5.8474426807760151 0.19099490570567865 4.9642857142857215 -0.0095557499999999965 1.9023899872448982 61.125000000000007 0.85754516246871626 0.21818135553612195 1.39455847710929 2.2798064680417625 0.16040258298859855 1.2318768634466311 0.0048267500000000003 2160.1475748500002 1.331374484705917 -0.023924999999999998 0.20504460993059984 5.0743467059256542 2.5462315462315463 2.5669994685637145 7.3400974025974035 0.63088279654586177 76.115657750000011 1.9725651750000002 1.4709057193625543
decision_type=2 2 2 2 2 2 2 2 2 2 2 2 2 2 2 2 2 2 2 2 2 2 2 2 2 2 2 2 2 2 2 2 2 2 2 2 2 2 2 2 2 2 2 2 2 2 2 2 2 2
left_child=1 6 8 5 13 23 24 9 15 -8 22 30 35 21 -11 29 20 -9 27 -20 -6 -4 28 42 25 -1 -24 -15 40 -2 -12 -25 36 46 -23 -5 -10 -21 -29 -40 -7 -18 -3 -22 48 -36 47 -28 -41 -31
right_child=2 3 4 12 16 10 7 17 32 14 11 -13 -14 18 -16 -17 41 -19 19 37 43 34 26 31 -26 -27 33 38 -30 49 -32 -33 -34 -35 45 -37 -38 -39 39 44 -42 -43 -44 -45 -46 -47 -48 -49 -50 -51
leaf_value=0.02039224521621414 -0.0055221981688269549 0.017072683034348304 -0.0051733937535789754 0.002529268417762773 0.0008983996917934213 0.006158932014924093 0.0038811400632507037 0.021564005737980972 -0.0041700114495941687 0.0066817788123760538 0.0085393390417183666 0.014687933918321506 -0.001708059293029711 0.0060561953671276576 0.014300888838867347 0.0034158861455507576 -0.00040836520792738082 0.014814907723270796 0.010542304479306387 0.00024290185689029322 0.00090344477212056518 0.0040298902958800847 0.0083883448370865414 0.012092889917807447 0.022116745071065043 0.013120717989901701 -0.00035784506848465434 -0.0012843394158775674 0.0078364790393664393 -0.0022321433498678159 0.0038602777446309724 0.0075282109231920918 -0.0013056996094528586 0.005999376261994864 -0.00034385161934187639 0.0064978468043801309 -0.003083352124338576 0.0050602656133748869 0.0053759740787031858 0.0040891103087259189 0.0017383066377425122 0.0028052134090103212 0.011965242265300317 -0.0027815283593934387 -0.0021312476560706273 0.003204696587003444 0.0052225529532734074 0.0035004191806599981 0.0012644177534365158 0.0010007504824265515
leaf_weight=23 35 20 21 93 58 44 28 26 1316 23 44 32 47 20 36 25 235 34 21 27 21 22 21 36 31 21 34 38 127 489 27 32 50 39 200 26 336 27 23 35 21 30 22 347 20 23 24 31 209 23
leaf_count=23 35 20 21 93 58 44 28 26 1316 23 44 32 47 20 36 25 235 34 21 27 21 22 21 36 31 21 34 38 127 489 27 32 50 39 200 26 336 27 23 35 21 30 22 347 20 23 24 31 209 23
internal_value=1.79883e-12 0.00823893 -0.00212574 0.0062352 3.14548e-06 0.00751888 0.0147375 0.0125276 -0.00341487 0.00893316 0.00649667 0.00922303 0.00195113 0.0013269 0.0113307 -0.00205661 -0.00131103 0.0177395 0.00220309 0.00486099 -0.00209885 -5.65639e-05 0.00567316 0.0116449 0.019069 0.0169217 0.00424039 0.00162529 0.00678505 -0.00230672 0.00675998 0.00994481 -0.00387134 0.00355987 0.000382022 0.00339635 -0.003949 0.00265158 0.00135261 0.00170176 0.00473073 -4.45639e-05 0.0143974 -0.00257124 0.00138166 2.21421e-05 0.00249087 0.00148225 0.0016696 -0.00208692
internal_weight=4593 942 3651 720 1377 554 222 147 2274 87 444 103 166 686 59 572 691 60 420 75 426 266 341 110 75 44 149 345 192 547 71 68 1702 128 245 119 1652 54 325 287 65 265 42 368 264 223 89 65 244 512
internal_count=4593 942 3651 720 1377 554 222 147 2274 87 444 103 166 686 59 572 691 60 420 75 426 266 341 110 75 44 149 345 192 547 71 68 1702 128 245 119 1652 54 325 287 65 265 42 368 264 223 89 65 244 512
is_linear=0
shrinkage=0.1


Tree=13
num_leaves=51
num_cat=0
split_feature=93 93 93 174 57 159 93 174 67 151 120 140 83 176 14 105 159 170 151 154 159 97 53 31 93 174 176 132 83 164 30 120 124 65 132 89 124 107 109 105 89 65 117 24 117 159 124 27 174 128
split_gain=6.34394 0.903201 0.899975 0.353801 0.220637 0.212177 0.167635 0.158726 0.123214 0.109225 0.0835146 0.082778 0.106219 0.0740317 0.0726788 0.0652681 0.064581 0.0652594 0.0611641 0.0498317 0.0478892 0.0476142 0.0619607 0.0449398 0.03749 0.038266 0.0366279 0.0357827 0.0357725 0.0342386 0.0334292 0.0326795 0.0326588 0.0322004 0.0362481 0.0333136 0.0304805 0.048236 0.0299084 0.029496 0.0376508 0.0275935 0.0260172 0.0250299 0.023016 0.0228893 0.0221261 0.02104 0.0287295 0.0197092
threshold=0.4728210676209566 0.17525778495679686 0.77561669931141519 1.908670033670034 72.023164800000004 0.98294938669497445 0.30931103093972095 3.6708333333333338 0.12177304999999999 0.071592381541624464 0.8530962794104916 1.1310595461225066 0.0052230861912986844 16.214820052961006 0.14174461364746097 0.48243309196999501 0.96680578826529684 1.902700857486493 0.021529832137353502 0.12855409712814497 0.94190766300382112 0.047274194161953796 76.411732500000014 3.9365657500000002 0.5358796491098845 2.5567857142857151 1.6726190476190479 5.0512871240045376 0.34210246577153375 0.86497854522603757 3.9258411500000006 0.90482724894396971 0.033442908114498293 -0.030283749999999995 3.1527807742209224 0.16963763821351249 2.1415266222866989 0.25025218077062328 0.46385706475809263 0.64891821587525045 0.79979517901339003 0.084492000000000025 0.23073715773481343 0.11179650723934174 0.49304082627287854 0.99541373244127962 0.14747906801456329 4.0247004677966105 3.3351449275362328 1.3784450162697752
decision_type=2 2 2 2 2 2 2 2 2 2 2 2 2 2 2 2 2 2 2 2 2 2 2 2 2 2 2 2 2 2 2 2 2 2 2 2 2 2 2 2 2 2 2 2 2 2 2 2 2 2
left_child=1 3 7 -1 29 18 13 16 28 -5 -8 12 -11 36 15 38 17 -2 26 45 32 -17 23 -23 -18 49 -4 -21 42 -3 -25 -27 -19 -14 -35 -36 37 44 -12 40 -22 -28 -9 -41 -6 -7 -44 -40 -49 -26
right_child=2 4 5 9 6 19 10 8 -10 11 14 -13 33 -15 -16 21 24 20 -20 27 39 22 -24 30 25 31 41 -29 -30 -31 -32 -33 -34 34 35 -37 -38 -39 47 43 -42 -43 46 -45 -46 -47 -48 48 -50 -51
leaf_value=0.0033700013908350632 -0.0044359508156776436 0.0037594714968387658 -0.0052915121942265506 0.0086075891332227684 0.0084456850244102755 -0.0032940916743547433 0.011006888569820496 0.0063986359696303098 0.010850146807497367 0.011112284463118106 0.00028900633375289752 0.010416999748849777 0.014034030789678749 0.014137451015849366 0.0092317816157204413 0.00063012203900143511 0.0021693037039528323 0.0074556482647312808 -0.00036755891016541139 -0.0025429267533198258 0.0030107764237456854 0.0094917052716482434 0.010743361901999876 0.00063908553915098315 -0.0015919189921358924 0.003472375722121797 -0.0021463440826630653 0.00088849499863701768 -0.0010239188452639306 -0.0007430671780112837 0.0050715760734308052 -0.00060486822191666326 0.0021647812241488802 0.021221184088238355 0.018908318796673339 0.014288571269975771 0.0049280109851679299 0.010165600818015121 0.0014002950433678052 0.0009332499787834584 -0.00021963751533693649 0.0001742618967239794 0.00093360589736982309 0.0048298616326064806 0.0053097452903166416 -0.0040742611310834002 0.0036451027222658295 0.0025483489674966663 0.0070558302458196597 -0.0043823214604829753
leaf_weight=36 20 24 34 31 44 1034 21 21 20 34 45 32 22 20 30 20 38 20 307 195 45 20 22 20 162 25 507 36 24 57 114 92 28 29 37 27 32 76 32 34 182 57 49 32 50 591 78 31 26 30
leaf_count=36 20 24 34 31 44 1034 21 21 20 34 45 32 22 20 30 20 38 20 307 195 45 20 22 20 162 25 507 36 24 57 114 92 28 29 37 27 32 76 32 34 182 57 49 32 50 591 78 31 26 30
internal_value=3.12241e-12 0.00736585 -0.00187516 0.0125358 0.00549137 -0.00277033 0.00614962 0.000871005 0.00342117 0.0140923 0.00487689 0.0150316 0.0160227 0.00833391 0.00451931 0.0040909 0.000179434 0.0011158 -0.00151493 -0.00338247 0.00144142 0.00525373 0.00577914 0.00506997 -0.000794713 -0.00115922 -0.00210397 -0.00200816 0.00255734 0.000591018 0.00441001 0.000266338 0.00436931 0.0174745 0.0182883 0.0169594 0.0077593 0.00829225 0.00239004 0.000961764 0.000420753 -0.00191181 0.00313808 0.00282252 0.00677763 -0.00357783 0.00259893 0.00345236 0.00460439 -0.00202792
internal_weight=4593 932 3661 248 684 2761 603 900 192 212 381 181 149 222 360 330 708 361 905 1856 341 196 176 154 347 309 598 231 172 81 134 117 48 115 93 64 202 170 134 293 227 564 148 66 94 1625 127 89 57 192
internal_count=4593 932 3661 248 684 2761 603 900 192 212 381 181 149 222 360 330 708 361 905 1856 341 196 176 154 347 309 598 231 172 81 134 117 48 115 93 64 202 170 134 293 227 564 148 66 94 1625 127 89 57 192
is_linear=0
shrinkage=0.1


Tree=14
num_leaves=51
num_cat=0
split_feature=76 87 76 142 145 106 153 145 170 127 145 153 170 153 56 165 132 118 170 76 145 38 158 145 79 135 145 161 7 99 73 56 62 99 170 165 15 132 145 165 161 35 87 165 145 35 79 73 18 99
split_gain=5.278 1.07631 0.502988 0.229308 0.14325 0.142106 0.133732 0.103814 0.104128 0.0892614 0.0775314 0.0743706 0.0669014 0.0656002 0.106328 0.0629047 0.0613836 0.0599488 0.0516882 0.0742575 0.0488779 0.0770468 0.0410857 0.0410459 0.0401781 0.0500978 0.0406451 0.0392417 0.03829 0.0354462 0.0468764 0.0353981 0.0459473 0.0385391 0.0343319 0.0281908 0.027585 0.0260619 0.0263749 0.0275268 0.0259554 0.0249411 0.024917 0.0248369 0.0240712 0.0277228 0.0239651 0.0292703 0.0386414 0.0225716
threshold=0.51393916310196686 0.1007068156587179 0.87352199448797896 -1.0000000180025095e-35 1.3119557807656566 0.14966366758238589 0.067051662734986486 1.4776360859265703 7.4640841735720453 0.13076283380981404 2.7795354630175884 0.02411242956279808 11.93425654026437 0.13667730172869855 71.800419750000017 0.97630217840489486 3.7281662105607158 2.486482575978735 1.985710536503025 0.28004904833055017 0.21615296030348188 6006.5948442832514 0.9840178761438606 0.38926506855513826 0.89805224242236104 -0.52518167990535736 4.3524539128405992 0.92935936974164057 179.30000000000004 0.51110908921239273 0.15650953709055432 77.206571750000009 -0.10953277499999999 0.58967350789590511 8.9617260822303262 0.99585406016769407 0.37177801132202154 0.99416111344133118 4.4015704610025512 0.98206565416810931 0.85338101192277704 1.9950328000000002 0.18736673684798646 0.96849010610751207 4.673041592971285 1.9983504000000003 0.97554842095665151 0.2098279525375141 0.0086153947049751895 0.53342427455859276
decision_type=2 2 2 2 2 2 2 2 2 2 2 2 2 2 2 2 2 2 2 2 2 2 2 2 2 2 2 2 2 2 2 2 2 2 2 2 2 2 2 2 2 2 2 2 2 2 2 2 2 2
left_child=1 4 6 5 9 31 44 13 18 -1 -10 36 -12 29 -15 17 -6 43 -9 -20 -11 -22 -7 -24 25 -17 46 35 -25 30 -5 33 -33 42 -35 -21 -4 -13 -39 -40 -18 -28 -3 -8 45 -2 47 48 -26 -44
right_child=2 3 11 7 16 22 15 8 10 20 12 37 -14 14 -16 24 40 -19 19 27 21 -23 23 28 26 -27 41 -29 -30 -31 -32 32 -34 34 -36 -37 -38 38 39 -41 -42 -43 49 -45 -46 -47 -48 -49 -50 -51
leaf_value=0.0098104321959960675 -0.0042796295222778547 0.0065704088734722214 -0.0033670679553418452 0.0090629074675962328 0.011995715706476145 0.0061896214584031932 0.0061297304354310557 -0.00046063528344449068 0.010092677155302631 0.018334700158093034 0.0066727960902837023 -0.0036677865437049345 -0.00028002262394875285 0.0029905978737034553 0.011794154565123951 0.0052223187843055442 0.0041653763003220469 -0.0017125473066698762 0.0049885396557510829 0.0013302925074582808 0.010243631545454265 0.017297666729427875 0.014320241538402828 0.0064268099074251952 -0.0012609149654101777 0.00052722947909624308 -0.00037799926681651009 -0.0026939536907732309 0.011857967306342391 0.001074733723847506 0.0022982736650322163 0.0049947117776449387 0.011225087574566715 0.0044349082430163705 -0.00066428345061190748 0.0046741164692017867 0.00028688579304365534 -0.002808441765835746 0.0013366339212128272 -0.0017695779192529034 0.0089793601184196409 0.0026230822895336641 0.0023641062593653898 0.0025879922042473815 0.001397610534555637 -0.0014892495472096151 -0.001689945226795496 -0.0010181516022522844 0.0027889329581446344 0.0065337887126952409
leaf_weight=35 39 79 1279 20 35 26 36 81 27 41 31 102 25 23 34 33 24 22 80 158 30 32 23 25 38 73 45 21 27 30 21 29 20 31 23 30 21 267 30 582 21 72 37 44 26 409 142 132 62 20
leaf_count=35 39 79 1279 20 35 26 36 81 27 41 31 102 25 23 34 33 24 22 80 158 30 32 23 25 38 73 45 21 27 30 21 29 20 31 23 30 21 267 30 582 21 72 37 44 26 409 142 132 62 20
internal_value=-5.23558e-13 0.00590318 -0.00194665 0.00440761 0.0122216 0.00647027 -0.000263851 0.00320054 0.00248999 0.0141733 0.00569107 -0.00281202 0.00356886 0.00571523 0.00824184 0.000615412 0.00885482 0.00291045 0.00177191 0.00239765 0.0156559 0.0138844 0.00961516 0.0108027 0.000223295 0.00198891 -0.000157876 0.00140592 0.00924683 0.00368682 0.0055981 0.00514126 0.00753772 0.00452323 0.00226303 0.00186388 -0.00330804 -0.0021547 -0.00197912 -0.00161731 0.0064119 0.00146882 0.00542066 0.00418177 -0.00156049 -0.00173216 -0.000666762 -4.0504e-05 0.00124999 0.00382715
internal_weight=4593 1139 3454 921 218 340 1173 581 453 138 83 2281 56 128 57 699 80 102 370 289 103 62 101 75 597 106 491 209 52 71 41 239 49 190 54 188 1300 981 879 612 45 117 136 80 474 448 374 232 100 57
internal_count=4593 1139 3454 921 218 340 1173 581 453 138 83 2281 56 128 57 699 80 102 370 289 103 62 101 75 597 106 491 209 52 71 41 239 49 190 54 188 1300 981 879 612 45 117 136 80 474 448 374 232 100 57
is_linear=0
shrinkage=0.1


Tree=15
num_leaves=51
num_cat=0
split_feature=71 71 75 53 175 151 1 100 151 163 151 125 167 39 132 163 71 111 1 96 19 55 175 5 5 165 86 175 175 151 165 17 165 175 71 43 39 163 168 86 96 110 3 125 3 86 168 163 132 110
split_gain=4.30949 0.709565 0.583373 0.160851 0.139649 0.135553 0.12514 0.115622 0.108649 0.101076 0.0824702 0.0680749 0.0670604 0.0643849 0.0980685 0.0635085 0.0604883 0.069074 0.0531397 0.0479827 0.0456962 0.0444941 0.0409647 0.0407639 0.0400924 0.0368722 0.0366268 0.0340653 0.0337281 0.0328735 0.0314499 0.0317747 0.0300053 0.0271389 0.0275933 0.0269629 0.0244903 0.0237161 0.0231037 0.0222324 0.0298473 0.0216445 0.0315202 0.0210343 0.0210312 0.0282145 0.0210258 0.0221516 0.0199389 0.0198906
threshold=0.4414435260530577 0.15177875403452681 0.70198013415892679 71.692482000000012 2.0625305474095801 0.083896035119503887 4.5000000000000009 0.18582666822197783 0.0612284130768357 0.97490814178274465 0.08191072351785518 3.402083556085655 0.98181879762641033 880.55975100063915 4.8191609179173271 0.95044638654141711 0.30921609631084995 0.84806369227251366 40.500000000000007 0.0088421587690071853 0.021184011222794657 77.188610875000009 1.5395823581421961 518.37827979288136 11.566776702964104 0.97022378663003672 0.46052589094111818 10.336021505376346 5.1507575757575763 0.0051541831133975029 0.97767259537161133 0.032617036253213889 0.99643569645744823 4.7536764705882364 0.25420933399765216 5317.8606720000007 413.67066843158307 0.99416340203258968 1.2029411764705884 0.039311407787510154 0.023079212059287969 1.3646599842497171 278.50000000000006 4.8222309147367257 236.50000000000003 0.37835552017294138 1.9663057530704591 0.94313021197212388 3.1527807742209224 1.8148059849130109
decision_type=2 2 2 2 2 2 2 2 2 2 2 2 2 2 2 2 2 2 2 2 2 2 2 2 2 2 2 2 2 2 2 2 2 2 2 2 2 2 2 2 2 2 2 2 2 2 2 2 2 2
left_child=1 4 8 -3 7 16 10 -1 15 22 -6 -12 -7 -10 -15 18 21 -18 30 -17 -8 24 49 37 -5 -19 -20 32 -21 -27 31 -2 33 34 -26 48 -24 -11 -16 -31 43 42 -35 -41 -30 -46 47 -38 -22 -4
right_child=2 3 9 5 6 12 20 -9 13 23 11 -13 -14 14 38 19 17 25 26 28 35 -23 36 -25 27 29 -28 -29 44 39 -32 -33 -34 41 -36 -37 46 -39 -40 40 -42 -43 -44 -45 45 -47 -48 -49 -50 -51
leaf_value=0.010557603616533537 0.0017379957694737685 0.00063815533025942826 -0.0021900695099523575 0.0012938542752332675 0.0032554188277572394 0.0045929841150064024 0.009762728648881119 0.0012967484679673083 -0.00046009080406899256 -0.002613942238994897 0.0070693558905207156 0.013821088334952948 0.011601950171901736 0.010128488462418319 0.00021545651810204924 -0.0040835793435307051 0.0079349944988573572 0.0068492481061680757 0.0014019610934778975 -0.00099355478779706088 0.015741401950695687 0.0096039887554943571 -0.0020583476943673222 -0.00095591919083035787 0.0092757267030802639 0.0062449623407288034 -0.00090229896730619993 0.0023726228624582294 -0.0020632067678282811 -0.00098926867707632487 0.0015046622508830922 0.0069678940890858382 0.0097743243596050897 0.002837913811621864 0.0049197619565977506 0.017394850080211958 0.0018125687858749494 -0.0033824098201995709 0.0045591867098119113 0.0026685568821531807 0.0016690334441799685 0.0026912288591524379 0.0075055158720948763 0.0064321316019804384 0.0046241143892984836 0.00060519028178321723 0.002524371138424613 -0.0010145206677567172 0.01216119924294097 -0.0058884053204495178
leaf_weight=28 21 99 33 24 20 20 21 26 30 1183 28 32 43 25 24 38 31 22 127 338 28 25 172 118 33 22 151 28 24 20 102 26 20 23 26 30 30 608 25 33 131 36 39 27 20 138 20 364 35 26
leaf_count=28 21 99 33 24 20 20 21 26 30 1183 28 32 43 25 24 38 31 22 127 338 28 25 172 118 33 22 151 28 24 20 102 26 20 23 26 30 30 608 25 33 131 36 39 27 20 138 20 364 35 26
internal_value=2.5469e-13 0.00599836 -0.00156422 0.00437396 0.0105964 0.00498731 0.0118484 0.00609867 0.000373723 -0.00239053 0.00881656 0.0106703 0.00937688 0.00344769 0.00503193 4.91621e-05 0.00447519 0.00347778 0.000967074 -0.000653254 0.013976 0.00559825 -0.00130826 -0.00275621 0.00516095 0.00293592 0.000150367 0.00561368 -0.000402577 0.00256643 0.00249086 0.00463113 0.00612639 0.00566168 0.00735615 0.0149274 -0.00105539 -0.00287482 0.00243165 0.00218288 0.00251504 0.00464154 0.00577399 0.00436217 0.000694954 0.00111391 -0.000638698 -0.00079926 0.0137524 -0.00381984
internal_weight=4593 950 3643 702 248 603 194 54 1089 2554 80 60 63 104 74 985 540 286 427 558 114 254 645 1909 229 255 278 205 520 233 149 47 177 157 59 93 586 1791 49 211 191 98 62 60 182 158 414 394 63 59
internal_count=4593 950 3643 702 248 603 194 54 1089 2554 80 60 63 104 74 985 540 286 427 558 114 254 645 1909 229 255 278 205 520 233 149 47 177 157 59 93 586 1791 49 211 191 98 62 60 182 158 414 394 63 59
is_linear=0
shrinkage=0.1


Tree=16
num_leaves=51
num_cat=0
split_feature=77 77 152 56 86 88 13 113 152 145 152 13 72 13 145 72 40 13 163 26 153 65 145 88 26 83 113 152 85 153 79 163 145 111 152 163 113 13 13 13 88 65 69 121 83 32 69 65 69 68
split_gain=3.51635 0.541857 0.468249 0.161436 0.160729 0.125629 0.116259 0.103334 0.102357 0.144732 0.0902448 0.074427 0.0715262 0.0669823 0.0666385 0.04985 0.0482505 0.0469135 0.0460939 0.0446953 0.0441899 0.0593198 0.0410479 0.0663106 0.0383078 0.0324266 0.0330127 0.0318829 0.0311715 0.0400297 0.0304432 0.0293873 0.0289082 0.0285362 0.0263998 0.0258509 0.0255867 0.0485932 0.023323 0.0228487 0.0227429 0.0222662 0.0232317 0.0209402 0.0291862 0.0207821 0.018644 0.0299376 0.0185171 0.0184986
threshold=0.60516296518358914 0.18053226169064751 0.045524150495094014 71.913843100000022 0.55857417670677478 0.34482150522628319 0.35591384722721658 0.90495210896814016 0.16733870967741937 0.49484861339390795 0.13430452115679151 0.053018585121527413 0.038184399236929505 0.076801505797012851 3.5185166810454942 0.31907210988196372 2270.9512298500003 0.26277185171378104 0.95306062478116849 4.1185575000000005 0.23882388358722703 0.012857750000000001 4.2981446099601035 0.86541405469300137 1.9994485000000002 0.20251924706471783 1.1074157235406255 0.13859129378973725 0.0061294451447098516 0.20504460993059984 0.86602476392687955 0.97490814178274465 0.78735012839096796 0.4621137275938057 0.15707926829067823 0.95935812988477975 0.21800604939612631 0.15942984955803732 0.22975225649448502 0.0070198679183038357 0.41554804178783616 -0.0095557499999999965 0.022075485490119642 1.3967885549751455 0.25209898110066087 4.0776950000000012 1.0000000180025095e-35 0.0040277500000000009 0.51103179753406891 0.080516099999999993
decision_type=2 2 2 2 2 2 2 2 2 2 2 2 2 2 2 2 2 2 2 2 2 2 2 2 2 2 2 2 2 2 2 2 2 2 2 2 2 2 2 2 2 2 2 2 2 2 2 2 2 2
left_child=1 7 4 27 15 13 18 -1 9 19 14 39 -11 -5 17 43 -8 32 22 -9 21 40 24 -24 -4 26 -15 -3 -20 46 -27 48 -7 -26 -14 -17 -35 -38 -37 -6 -19 42 49 44 -2 -16 -30 -48 -13 -34
right_child=2 3 6 5 11 10 16 8 -10 12 -12 31 34 25 45 35 -18 20 28 -21 -22 -23 23 -25 33 30 -28 -29 29 -31 -32 -33 41 36 -36 38 37 -39 -40 -41 -42 -43 -44 -45 -46 -47 47 -49 -50 -51
leaf_value=0.014670506813046005 -7.3958835693904105e-05 -0.0015882939377384585 -0.0030001097063413235 0.0022908227285370233 -0.0033719620698569293 0.0051748386744293389 0.0069730563618109701 0.008159707223198245 0.013299104180186989 -0.00065465195511933423 0.010488078894559294 -0.001467745940194909 0.0044836465487136474 0.012459758053032254 0.0089075625824849482 0.0046107913776667732 0.002403425495311454 0.006965681053698063 -0.004390321296814363 0.013112689432148873 0.0009093103822893821 0.0090543982692796628 0.0081577479187399157 0.0013248788789199781 -0.0025575051804827085 0.0047707633824565603 0.0078826028830371788 0.0020424906636916976 -0.001478676651291048 0.0040067498089047153 0.0095150354362669443 -0.0020241642091973888 0.0036988175939768556 0.00062462125513673716 0.009013100336199965 -0.0012916956987717877 0.00031766111682042145 0.0058313180046576651 0.0033177118637554705 -0.0024607478491163637 0.0030875851197408573 0.0026310997513393241 -0.0021219293384448341 0.00022527516362448618 -0.0043367605214810062 0.0050738892591212911 -0.0022571608746823459 0.0011842712555285339 -0.00014390207895591698 -0.00026988355954096695
leaf_weight=36 36 46 27 23 366 32 35 35 40 20 20 297 31 26 26 33 68 20 20 38 26 33 20 49 21 38 40 51 130 20 21 703 24 161 22 23 33 31 21 1109 62 155 23 129 29 31 35 91 164 23
leaf_count=36 36 46 27 23 366 32 35 35 40 20 20 297 31 26 26 33 68 20 20 38 26 33 20 49 21 38 40 51 130 20 21 703 24 161 22 23 33 31 21 1109 62 155 23 129 29 31 35 91 164 23
internal_value=-4.12225e-12 0.00544727 -0.00140546 0.0041155 -0.00197693 0.00470635 0.000838785 0.0097665 0.00881734 0.00758945 0.00391369 -0.00221509 0.00444093 0.00725035 0.00362471 0.000342255 0.00395621 0.00316672 0.000335501 0.010738 0.00463249 0.00547425 0.00112626 0.00330542 0.000575484 0.0081629 0.00968572 0.000320675 -0.000578146 -0.000301902 0.0064594 -0.00161727 0.00236255 0.000967927 0.0063638 0.00249505 0.00129697 0.00298834 0.000908249 -0.00268685 0.00403346 0.00196258 0.000482285 -0.000512207 -0.00197582 0.00682258 -0.000638515 0.000228318 -0.000996791 0.00175669
internal_weight=4593 942 3651 720 2910 623 741 222 186 146 475 2639 73 148 455 271 103 398 638 73 141 115 342 69 273 125 66 97 296 276 59 1164 257 246 53 77 225 64 44 1475 82 225 70 194 65 57 256 126 461 47
internal_count=4593 942 3651 720 2910 623 741 222 186 146 475 2639 73 148 455 271 103 398 638 73 141 115 342 69 273 125 66 97 296 276 59 1164 257 246 53 77 225 64 44 1475 82 225 70 194 65 57 256 126 461 47
is_linear=0
shrinkage=0.1


Tree=17
num_leaves=51
num_cat=0
split_feature=77 77 162 15 150 102 150 50 77 26 150 77 77 106 162 147 35 17 50 147 17 117 58 9 134 68 9 68 50 17 26 58 106 25 107 31 104 31 102 77 84 58 22 147 36 84 134 147 91 91
split_gain=2.84825 0.438904 0.346168 0.136329 0.136005 0.104478 0.107804 0.0917351 0.0788407 0.0771759 0.0636098 0.0598236 0.0568228 0.0506865 0.0495776 0.0445465 0.0498277 0.0437518 0.0414948 0.0383703 0.0351218 0.033713 0.0449181 0.0324717 0.0311227 0.0309945 0.0426798 0.0294567 0.0275076 0.0311995 0.0272543 0.0258943 0.025616 0.0252707 0.023598 0.0217243 0.0214962 0.0204932 0.0196533 0.0190063 0.0186383 0.0185692 0.038389 0.0321987 0.0285122 0.0249769 0.0226826 0.0199135 0.0180443 0.0165196
threshold=0.60516296518358914 0.18053226169064751 0.94611984180207054 0.19693039357662204 0.058926939284230519 0.31786602456974133 0.16026498983177387 0.17043564753105797 0.93625408410445654 4.1496440000000012 0.062733930028726723 0.79610313935551691 0.36233477062274694 1.9255126133813205 0.90634784708956373 0.36044724249472032 4.1484021750000011 0.053260268643498428 0.45167301670398297 0.16596673081826729 0.084102813154459014 1.9689790461491288 -0.068718499999999988 140.25000000000003 8.5115521579716891 0.060602925000000009 282.25000000000006 0.10141807499999993 0.62773777431224309 0.051787685602903373 4.1857110000000004 -0.072342999999999991 0.01465368473925417 1.9857915000000002 0.0075614163918796872 3.8645381250000006 0.02201223622130306 1.9830326250000001 0.013885274813991788 0.11662348140521335 0.053429710795669778 -0.19813749999999999 0.21406217664480212 0.36224451598412827 2753.7392485000005 0.031083538066367711 3.6020043642680108 0.31232009758356288 0.023943325638780547 0.80096898315423981
decision_type=2 2 2 2 2 2 2 2 2 2 2 2 2 2 2 2 2 2 2 2 2 2 2 2 2 2 2 2 2 2 2 2 2 2 2 2 2 2 2 2 2 2 2 2 2 2 2 2 2 2
left_child=1 5 11 19 12 39 7 -7 34 18 -9 15 25 23 17 21 -17 37 -6 -3 24 22 35 -12 36 -5 30 -24 29 49 -27 32 -14 48 -4 -2 -10 -13 -37 -1 -39 47 43 44 46 -44 -43 -34 -21 -16
right_child=2 3 8 4 9 6 -8 10 20 -11 13 14 31 -15 28 16 -18 -19 -20 33 -22 -23 27 -25 -26 26 -28 -29 -30 -31 -32 -33 41 -35 -36 38 -38 40 -40 -41 -42 42 45 -45 -46 -47 -48 -49 -50 -51
leaf_value=0.015289339591704665 -0.0022221385644605528 -0.00056455139362750586 0.00193575522939985 0.0021907909004949037 0.0023128710559103638 0.00057090761097656063 0.012851306468699919 0.0027181656914763153 -0.0029602952072318332 0.01219174460988612 0.0069093868241179735 0.0028999242919962856 0.0044167952460774373 0.0055206600429408038 -0.0005992223014180658 0.0016405560268322008 0.0076559010582665614 0.0057138501916779204 0.0081932612756888071 0.0004269636426985157 0.0019959844485856592 -0.0028405500246056667 0.0017881160320971032 0.011735868522816379 -0.00081868940422380639 0.010259039172004644 0.0031694349936313101 0.0067766866413876414 -0.002901480092012482 0.0022886730811749021 0.0061697917954566389 0.0056555045593229721 0.0022769183926357075 0.0049323090740169091 -0.00095519918982517988 0.00045146207729388708 -0.0021454851026991946 0.0021640521868830547 0.0031262948468793184 0.011169889119143288 -0.0010779802752830486 0.0018320855079218747 0.0070801504405921915 0.0053630671463906765 0.0026602577611648877 0.0026118346976793626 -0.0026473499950952829 -0.0016861064564658421 0.0035756841385071836 -0.0034683631422619023
leaf_weight=21 26 68 30 20 20 22 33 22 415 31 20 30 81 34 452 40 21 20 30 52 20 24 29 46 148 28 27 20 53 37 39 38 32 30 480 194 1473 25 32 24 61 20 29 22 56 22 26 21 28 21
leaf_count=21 26 68 30 20 20 22 33 22 415 31 20 30 81 34 452 40 21 20 30 52 20 24 29 46 148 28 27 20 53 37 39 38 32 30 480 194 1473 25 32 24 61 20 29 22 56 22 26 21 28 21
internal_value=1.18373e-12 0.00490254 -0.00126491 0.00370395 0.00449252 0.00878985 0.007696 0.00651458 -0.00189809 0.0082716 0.00758639 0.000232534 0.00382852 0.0086574 -0.00031926 0.00123177 0.00371141 0.00139426 0.00584111 0.00130281 -0.00217416 0.000766355 0.00105395 0.0102733 -0.00221512 0.00576549 0.00652606 0.00382427 -0.000733182 -0.000507849 0.00787873 0.00319216 0.00288923 0.00245719 -0.000785143 0.000515276 -0.00232459 0.000649502 0.000830199 0.0130923 -0.000135529 0.00234654 0.00284318 0.00189333 0.00114495 0.00515264 -0.000699769 0.000706663 0.00152902 -0.000726605
internal_weight=4593 942 3651 720 542 222 177 144 2566 81 122 1085 461 100 699 386 61 136 50 178 2056 325 301 66 2036 114 94 49 563 510 67 347 309 110 510 252 1888 116 226 45 86 228 175 124 102 51 46 53 80 473
internal_count=4593 942 3651 720 542 222 177 144 2566 81 122 1085 461 100 699 386 61 136 50 178 2056 325 301 66 2036 114 94 49 563 510 67 347 309 110 510 252 1888 116 226 45 86 228 175 124 102 51 46 53 80 473
is_linear=0
shrinkage=0.1


Tree=18
num_leaves=51
num_cat=0
split_feature=85 143 100 153 33 169 5 123 143 144 65 169 173 100 123 21 31 153 83 113 94 73 96 144 33 177 5 169 65 21 169 173 31 107 96 143 144 153 173 113 85 11 137 143 23 94 100 20 143 170
split_gain=1.97604 0.640131 0.215417 0.209262 0.154976 0.13301 0.120678 0.106727 0.10004 0.065912 0.0550887 0.0530259 0.0480398 0.0465641 0.0404439 0.0402485 0.0400161 0.0374372 0.0582339 0.0333906 0.039947 0.0360374 0.0315525 0.0312662 0.0295897 0.0364488 0.0312888 0.0342589 0.0327592 0.0320623 0.0292664 0.0278527 0.0278418 0.0277724 0.0271195 0.0266307 0.0273264 0.026489 0.024617 0.0256218 0.0244107 0.0234582 0.0230557 0.0261102 0.022963 0.0215486 0.0214764 0.0205006 0.0198025 0.0182618
threshold=0.32666268423605421 0.31401482127288588 0.22313724287408498 0.067051662734986486 1.9948825000000003 295.62500000000006 94.615531667577798 2.7554396309395774 -0.089913867979154585 1.8673916283176777 0.07705250000000001 88.11764705882355 1.5231884057971017 0.90710961401865309 1.8176362170316349 0.042637161910533912 1.9803343750000002 0.084674665889927656 0.31225080788758025 1.1413741070645391 0.16284480663947268 0.38653959036255148 0.010944921222885524 0.069230115373172849 1.9925865000000003 8.8561904761904788 31.710880486701178 33.0343137254902 0.015443 0.1477482654154301 75.750000000000014 2.635234449760766 3.8786095000000005 0.26533357115527895 0.0088421587690071853 0.50848745206543378 3.1841223881504916 0.1512201749514239 2.3491666666666675 0.12275398896683189 0.49141907789461775 255.65000000000003 0.85644180046183271 1.1445389386276656 0.24995976686477683 0.016420773352789013 0.97405047594615246 0.1455319877713919 0.043403729110968341 46.081996003036181
decision_type=2 2 2 2 2 2 2 2 2 2 2 2 2 2 2 2 2 2 2 2 2 2 2 2 2 2 2 2 2 2 2 2 2 2 2 2 2 2 2 2 2 2 2 2 2 2 2 2 2 2
left_child=1 8 4 12 -3 6 17 9 23 -8 13 22 33 19 -10 -13 -12 18 32 20 21 -5 -9 41 -19 34 27 -27 29 -28 -31 -15 -4 40 -26 -36 37 42 39 46 -2 44 43 -37 -1 -14 -7 -21 -16 -33
right_child=3 2 5 10 -6 38 7 11 14 -11 16 15 45 31 48 -17 -18 24 -20 47 -22 -23 -24 -25 25 26 28 -29 -30 30 -32 49 -34 -35 35 36 -38 -39 -40 -41 -42 -43 -44 -45 -46 -47 -48 -49 -50 -51
leaf_value=0.0079573476542940443 2.5219864402427908e-05 0.011837235197890551 -0.0040645711458004684 0.0067181980385794303 0.0028639028657776997 0.0014908999380644501 0.012688104566186667 0.0079333700493655415 0.0027129580305392249 0.005657173903891817 0.00066679012257240676 -0.0026764354529653003 -0.002419502450801993 -0.0011474114918888164 0.0087489642213437382 0.0026981780905962777 0.0053575232001622361 -5.6623127699519202e-05 0.0030646620131864321 -0.0019792888070793548 -0.0007823928334557156 0.0019949724088378605 0.0032584839475540712 0.0074453249379682054 0.0049768678275875959 -0.0025101276039070377 -0.00083381394648717507 0.0020803619812419321 0.0047042639661781689 0.00092865219866892091 0.0045935939677292483 0.0014224163297756871 -0.00015236975500713392 -0.0036779974965062343 0.0055192939583759183 0.00098822185814853255 0.0048427190652794464 0.0044969226249718464 0.00056792152312549733 -0.0050129545872788072 -0.0020809165994862557 0.014419928884931973 -0.00039775481880560779 0.0044246776823208414 0.01248533207641837 -0.00083974807372003656 -0.0024756675617073854 0.0018432969844434412 0.0060632183540242487 -0.0013060793014509338
leaf_weight=21 57 38 23 20 39 21 20 22 26 40 44 22 103 401 44 38 31 60 53 47 41 84 42 24 57 37 45 29 37 53 37 82 87 106 27 67 33 29 54 23 1593 21 57 33 24 534 39 20 73 35
leaf_count=21 57 38 23 20 39 21 20 22 26 40 44 22 103 401 44 38 31 60 53 47 41 84 42 24 57 37 45 29 37 53 37 82 87 106 27 67 33 29 54 23 1593 21 57 33 24 534 39 20 73 35
internal_value=-2.31328e-12 0.00314052 0.00218129 -0.00136993 0.0072923 0.00181858 0.00223948 0.00453853 0.00792431 0.00800082 2.4768e-05 0.00286322 -0.0018391 -0.000240389 0.00628046 0.000727486 0.00260563 0.00168578 0.000341631 0.00100803 0.00186113 0.00290329 0.00486548 0.0105362 0.00205034 0.00228401 0.00135787 -0.000493094 0.00206813 0.00134563 0.00243535 -0.000751326 -0.000970376 -0.00210896 0.00301147 0.00255608 0.00219075 0.00172024 -0.00109396 -0.00217518 -0.00200816 0.0116602 0.00120735 0.00212225 0.0103723 -0.00109519 -0.00108737 -0.000838218 0.00707324 0.0006062
internal_weight=4593 1395 1162 3198 77 1085 948 184 233 60 805 124 2393 730 143 60 75 764 163 212 145 104 64 90 601 541 238 66 172 135 90 518 110 1756 303 246 219 186 137 83 1650 66 157 100 45 637 60 67 117 117
internal_count=4593 1395 1162 3198 77 1085 948 184 233 60 805 124 2393 730 143 60 75 764 163 212 145 104 64 90 601 541 238 66 172 135 90 518 110 1756 303 246 219 186 137 83 1650 66 157 100 45 637 60 67 117 117
is_linear=0
shrinkage=0.1


Tree=19
num_leaves=51
num_cat=0
split_feature=75 143 153 99 13 170 66 78 13 13 86 125 170 170 143 98 137 170 66 13 170 147 154 159 78 13 72 125 29 137 124 124 164 159 143 99 91 99 154 153 25 170 147 147 13 13 13 72 79 13
split_gain=1.8729 0.359527 0.244875 0.113681 0.130038 0.110459 0.0655811 0.0623732 0.0533007 0.052542 0.0504686 0.0485957 0.0583969 0.0469624 0.0441754 0.0386006 0.0380531 0.0380017 0.035729 0.0339051 0.0366502 0.033815 0.0334257 0.0333757 0.0291192 0.0280861 0.0307619 0.0273589 0.0257999 0.0247968 0.0247592 0.0239496 0.0229117 0.0218296 0.0217587 0.0214624 0.0207076 0.0206617 0.0204024 0.0223883 0.0202801 0.0196662 0.0183499 0.017324 0.022589 0.0171527 0.0169798 0.0252584 0.0162289 0.0158923
threshold=0.28142700345410226 0.043403729110968341 0.067051662734986486 0.1061453699892449 0.45208454574131568 11.93425654026437 0.052971500000000012 0.93571827755993642 0.053018585121527413 0.26515128698253571 0.16464771983387169 3.2630747004970457 6.1322854171931231 1.902700857486493 0.31401482127288588 0.21345819061336305 1.2932736098772912 2.190678750061489 0.10711075000000002 0.35591384722721658 3.0833572842627306 0.18598524762908328 0.15698847145520248 0.97140207407055146 0.48761678120686963 0.30204941502980232 0.15354999527458882 10.948343977559183 3.9633417250000007 -0.2731382866443528 0.12588972656302869 0.13513306228380362 0.98877192429519212 0.97644227459920374 0.50848745206543378 0.87378485226288916 0.33524012772580675 0.64609398887054381 0.1776794056699971 0.093996771646228175 1.9835395000000002 4.8672841180503665 0.33024543036128046 0.34146825396825403 0.32852525765266888 0.30204941502980232 0.092473602143223435 0.18382389645258423 0.96431882321221407 0.0024144966964632646
decision_type=2 2 2 2 2 2 2 2 2 2 2 2 2 2 2 2 2 2 2 2 2 2 2 2 2 2 2 2 2 2 2 2 2 2 2 2 2 2 2 2 2 2 2 2 2 2 2 2 2 2
left_child=1 11 8 21 5 9 -6 13 49 14 33 12 -1 -4 41 16 17 -16 25 20 -9 -3 -19 40 -11 26 31 -22 -24 -13 -28 -15 -21 -7 -26 37 -29 46 39 -39 -10 -5 -27 45 -45 -36 -17 -48 -25 -2
right_child=2 3 7 4 6 10 -8 19 23 24 -12 29 -14 18 15 35 -18 22 -20 32 27 -23 28 48 34 42 30 36 -30 -31 -32 -33 -34 -35 43 -37 -38 38 -40 -41 -42 -43 -44 44 -46 -47 47 -49 -50 -51
